{"learner":{"attributes":{"scikit_learn":"{\"_estimator_type\": \"regressor\"}"},"feature_names":["Sex","Age","Weight","Height","Neck","Chest","Abdomen","Hip","Thigh","Knee","Wrist","BMI","y_sr1","y_sr2"],"feature_types":["int","int","float","float","float","float","float","float","float","float","float","float","float","float"],"gradient_booster":{"model":{"gbtree_model_param":{"num_parallel_tree":"1","num_trees":"1000"},"iteration_indptr":[0,1,2,3,4,5,6,7,8,9,10,11,12,13,14,15,16,17,18,19,20,21,22,23,24,25,26,27,28,29,30,31,32,33,34,35,36,37,38,39,40,41,42,43,44,45,46,47,48,49,50,51,52,53,54,55,56,57,58,59,60,61,62,63,64,65,66,67,68,69,70,71,72,73,74,75,76,77,78,79,80,81,82,83,84,85,86,87,88,89,90,91,92,93,94,95,96,97,98,99,100,101,102,103,104,105,106,107,108,109,110,111,112,113,114,115,116,117,118,119,120,121,122,123,124,125,126,127,128,129,130,131,132,133,134,135,136,137,138,139,140,141,142,143,144,145,146,147,148,149,150,151,152,153,154,155,156,157,158,159,160,161,162,163,164,165,166,167,168,169,170,171,172,173,174,175,176,177,178,179,180,181,182,183,184,185,186,187,188,189,190,191,192,193,194,195,196,197,198,199,200,201,202,203,204,205,206,207,208,209,210,211,212,213,214,215,216,217,218,219,220,221,222,223,224,225,226,227,228,229,230,231,232,233,234,235,236,237,238,239,240,241,242,243,244,245,246,247,248,249,250,251,252,253,254,255,256,257,258,259,260,261,262,263,264,265,266,267,268,269,270,271,272,273,274,275,276,277,278,279,280,281,282,283,284,285,286,287,288,289,290,291,292,293,294,295,296,297,298,299,300,301,302,303,304,305,306,307,308,309,310,311,312,313,314,315,316,317,318,319,320,321,322,323,324,325,326,327,328,329,330,331,332,333,334,335,336,337,338,339,340,341,342,343,344,345,346,347,348,349,350,351,352,353,354,355,356,357,358,359,360,361,362,363,364,365,366,367,368,369,370,371,372,373,374,375,376,377,378,379,380,381,382,383,384,385,386,387,388,389,390,391,392,393,394,395,396,397,398,399,400,401,402,403,404,405,406,407,408,409,410,411,412,413,414,415,416,417,418,419,420,421,422,423,424,425,426,427,428,429,430,431,432,433,434,435,436,437,438,439,440,441,442,443,444,445,446,447,448,449,450,451,452,453,454,455,456,457,458,459,460,461,462,463,464,465,466,467,468,469,470,471,472,473,474,475,476,477,478,479,480,481,482,483,484,485,486,487,488,489,490,491,492,493,494,495,496,497,498,499,500,501,502,503,504,505,506,507,508,509,510,511,512,513,514,515,516,517,518,519,520,521,522,523,524,525,526,527,528,529,530,531,532,533,534,535,536,537,538,539,540,541,542,543,544,545,546,547,548,549,550,551,552,553,554,555,556,557,558,559,560,561,562,563,564,565,566,567,568,569,570,571,572,573,574,575,576,577,578,579,580,581,582,583,584,585,586,587,588,589,590,591,592,593,594,595,596,597,598,599,600,601,602,603,604,605,606,607,608,609,610,611,612,613,614,615,616,617,618,619,620,621,622,623,624,625,626,627,628,629,630,631,632,633,634,635,636,637,638,639,640,641,642,643,644,645,646,647,648,649,650,651,652,653,654,655,656,657,658,659,660,661,662,663,664,665,666,667,668,669,670,671,672,673,674,675,676,677,678,679,680,681,682,683,684,685,686,687,688,689,690,691,692,693,694,695,696,697,698,699,700,701,702,703,704,705,706,707,708,709,710,711,712,713,714,715,716,717,718,719,720,721,722,723,724,725,726,727,728,729,730,731,732,733,734,735,736,737,738,739,740,741,742,743,744,745,746,747,748,749,750,751,752,753,754,755,756,757,758,759,760,761,762,763,764,765,766,767,768,769,770,771,772,773,774,775,776,777,778,779,780,781,782,783,784,785,786,787,788,789,790,791,792,793,794,795,796,797,798,799,800,801,802,803,804,805,806,807,808,809,810,811,812,813,814,815,816,817,818,819,820,821,822,823,824,825,826,827,828,829,830,831,832,833,834,835,836,837,838,839,840,841,842,843,844,845,846,847,848,849,850,851,852,853,854,855,856,857,858,859,860,861,862,863,864,865,866,867,868,869,870,871,872,873,874,875,876,877,878,879,880,881,882,883,884,885,886,887,888,889,890,891,892,893,894,895,896,897,898,899,900,901,902,903,904,905,906,907,908,909,910,911,912,913,914,915,916,917,918,919,920,921,922,923,924,925,926,927,928,929,930,931,932,933,934,935,936,937,938,939,940,941,942,943,944,945,946,947,948,949,950,951,952,953,954,955,956,957,958,959,960,961,962,963,964,965,966,967,968,969,970,971,972,973,974,975,976,977,978,979,980,981,982,983,984,985,986,987,988,989,990,991,992,993,994,995,996,997,998,999,1000],"tree_info":[0,0,0,0,0,0,0,0,0,0,0,0,0,0,0,0,0,0,0,0,0,0,0,0,0,0,0,0,0,0,0,0,0,0,0,0,0,0,0,0,0,0,0,0,0,0,0,0,0,0,0,0,0,0,0,0,0,0,0,0,0,0,0,0,0,0,0,0,0,0,0,0,0,0,0,0,0,0,0,0,0,0,0,0,0,0,0,0,0,0,0,0,0,0,0,0,0,0,0,0,0,0,0,0,0,0,0,0,0,0,0,0,0,0,0,0,0,0,0,0,0,0,0,0,0,0,0,0,0,0,0,0,0,0,0,0,0,0,0,0,0,0,0,0,0,0,0,0,0,0,0,0,0,0,0,0,0,0,0,0,0,0,0,0,0,0,0,0,0,0,0,0,0,0,0,0,0,0,0,0,0,0,0,0,0,0,0,0,0,0,0,0,0,0,0,0,0,0,0,0,0,0,0,0,0,0,0,0,0,0,0,0,0,0,0,0,0,0,0,0,0,0,0,0,0,0,0,0,0,0,0,0,0,0,0,0,0,0,0,0,0,0,0,0,0,0,0,0,0,0,0,0,0,0,0,0,0,0,0,0,0,0,0,0,0,0,0,0,0,0,0,0,0,0,0,0,0,0,0,0,0,0,0,0,0,0,0,0,0,0,0,0,0,0,0,0,0,0,0,0,0,0,0,0,0,0,0,0,0,0,0,0,0,0,0,0,0,0,0,0,0,0,0,0,0,0,0,0,0,0,0,0,0,0,0,0,0,0,0,0,0,0,0,0,0,0,0,0,0,0,0,0,0,0,0,0,0,0,0,0,0,0,0,0,0,0,0,0,0,0,0,0,0,0,0,0,0,0,0,0,0,0,0,0,0,0,0,0,0,0,0,0,0,0,0,0,0,0,0,0,0,0,0,0,0,0,0,0,0,0,0,0,0,0,0,0,0,0,0,0,0,0,0,0,0,0,0,0,0,0,0,0,0,0,0,0,0,0,0,0,0,0,0,0,0,0,0,0,0,0,0,0,0,0,0,0,0,0,0,0,0,0,0,0,0,0,0,0,0,0,0,0,0,0,0,0,0,0,0,0,0,0,0,0,0,0,0,0,0,0,0,0,0,0,0,0,0,0,0,0,0,0,0,0,0,0,0,0,0,0,0,0,0,0,0,0,0,0,0,0,0,0,0,0,0,0,0,0,0,0,0,0,0,0,0,0,0,0,0,0,0,0,0,0,0,0,0,0,0,0,0,0,0,0,0,0,0,0,0,0,0,0,0,0,0,0,0,0,0,0,0,0,0,0,0,0,0,0,0,0,0,0,0,0,0,0,0,0,0,0,0,0,0,0,0,0,0,0,0,0,0,0,0,0,0,0,0,0,0,0,0,0,0,0,0,0,0,0,0,0,0,0,0,0,0,0,0,0,0,0,0,0,0,0,0,0,0,0,0,0,0,0,0,0,0,0,0,0,0,0,0,0,0,0,0,0,0,0,0,0,0,0,0,0,0,0,0,0,0,0,0,0,0,0,0,0,0,0,0,0,0,0,0,0,0,0,0,0,0,0,0,0,0,0,0,0,0,0,0,0,0,0,0,0,0,0,0,0,0,0,0,0,0,0,0,0,0,0,0,0,0,0,0,0,0,0,0,0,0,0,0,0,0,0,0,0,0,0,0,0,0,0,0,0,0,0,0,0,0,0,0,0,0,0,0,0,0,0,0,0,0,0,0,0,0,0,0,0,0,0,0,0,0,0,0,0,0,0,0,0,0,0,0,0,0,0,0,0,0,0,0,0,0,0,0,0,0,0,0,0,0,0,0,0,0,0,0,0,0,0,0,0,0,0,0,0,0,0,0,0,0,0,0,0,0,0,0,0,0,0,0,0,0,0,0,0,0,0,0,0,0,0,0,0,0,0,0,0,0,0,0,0,0,0,0,0,0,0,0,0,0,0,0,0,0,0,0,0,0,0,0,0,0,0,0,0,0,0,0,0,0,0,0,0,0,0,0,0,0,0,0,0,0,0,0,0,0,0,0,0,0,0,0,0,0,0,0,0,0,0,0,0,0,0,0,0,0,0,0,0,0,0,0,0,0,0,0,0,0,0,0,0,0,0,0,0,0,0,0,0,0,0,0,0,0,0,0,0,0,0,0,0,0,0,0,0,0,0,0,0,0,0,0,0,0,0,0,0,0,0,0,0,0,0,0,0,0,0,0,0,0,0,0,0,0,0,0,0,0,0,0,0,0,0,0,0,0,0,0,0],"trees":[{"base_weights":[-6.3621305E-2,-5.7001896E0,4.1335793E0,-9.523E0,-2.646233E0,2.3722358E0,1.0627299E1,-5.8847904E-2,-7.0898438E0,-4.456208E0,-1.6866115E0,-1.6143675E0,3.534666E0,7.493754E0,1.3335753E1,-3.656814E-2,-9.832801E-3,-1.6306635E-2,-4.214217E-2,-5.618658E-3,-2.03951E-2,-1.4802188E-2,-3.3607678E-3,1.1437042E-2,2.5311898E-2,3.90312E-2,1.3000536E-2,2.9813098E-2,7.0350766E-2],"categories":[],"categories_nodes":[],"categories_segments":[],"categories_sizes":[],"default_left":[0,0,0,0,0,0,0,0,0,0,0,0,0,0,0,0,0,0,0,0,0,0,0,0,0,0,0,0,0],"id":0,"left_children":[1,3,5,7,9,11,13,-1,15,17,19,21,23,25,27,-1,-1,-1,-1,-1,-1,-1,-1,-1,-1,-1,-1,-1,-1],"loss_changes":[9.534001E3,1.9828477E3,2.616892E3,3.3199268E2,1.6096265E2,8.537554E2,3.1593115E2,0E0,3.0331055E1,1.2914124E2,8.2947784E1,5.1278137E1,2.589945E2,1.7932861E1,5.1475586E1,0E0,0E0,0E0,0E0,0E0,0E0,0E0,0E0,0E0,0E0,0E0,0E0,0E0,0E0],"parents":[2147483647,0,0,1,1,2,2,3,3,4,4,5,5,6,6,8,8,9,9,10,10,11,11,12,12,13,13,14,14],"right_children":[2,4,6,8,10,12,14,-1,16,18,20,22,24,26,28,-1,-1,-1,-1,-1,-1,-1,-1,-1,-1,-1,-1,-1,-1],"split_conditions":[1.8903177E1,1.5421883E1,2.7547604E1,1.1932985E1,1.8678926E1,2.1500513E1,3.073894E1,-5.8847904E-2,1.88E0,9.23E1,5.1E1,2.0218775E1,2.3074348E1,1.85E0,1.041E2,-3.656814E-2,-9.832801E-3,-1.6306635E-2,-4.214217E-2,-5.618658E-3,-2.03951E-2,-1.4802188E-2,-3.3607678E-3,1.1437042E-2,2.5311898E-2,3.90312E-2,1.3000536E-2,2.9813098E-2,7.0350766E-2],"split_indices":[12,12,12,12,13,11,12,0,3,5,1,11,12,3,7,0,0,0,0,0,0,0,0,0,0,0,0,0,0],"split_type":[0,0,0,0,0,0,0,0,0,0,0,0,0,0,0,0,0,0,0,0,0,0,0,0,0,0,0,0,0],"sum_hessian":[4.01E2,1.71E2,2.3E2,7.5E1,9.6E1,1.82E2,4.8E1,3.7E1,3.8E1,3.2E1,6.4E1,4.1E1,1.41E2,2.4E1,2.4E1,3.6E1,2E0,2.6E1,6E0,5.3E1,1.1E1,1.6E1,2.5E1,7.9E1,6.2E1,2.2E1,2E0,3E0,2.1E1],"tree_param":{"num_deleted":"0","num_feature":"14","num_nodes":"29","size_leaf_vector":"1"}},{"base_weights":[-4.7966284E-3,-5.5623198E0,4.2907767E0,-9.653604E0,-2.529226E0,1.7115743E0,8.807066E0,-1.1423668E1,-7.7267833E0,-4.6794586E0,-1.4486957E0,-2.7564993E0,2.4781303E0,6.8165917E0,1.3152303E1,-1.6727481E-2,-5.7775654E-2,-3.9263755E-2,-7.35002E-3,-3.3722871E-3,-2.7567927E-2,1.9021673E-2,-8.703435E-3,3.1793092E-3,-1.6628008E-2,8.234047E-3,1.9949911E-2,1.8027142E-2,3.6991756E-2,3.608138E-2,6.969671E-2],"categories":[],"categories_nodes":[],"categories_segments":[],"categories_sizes":[],"default_left":[0,0,0,0,0,0,0,0,0,0,0,0,0,0,0,0,0,0,0,0,0,0,0,0,0,0,0,0,0,0,0],"id":1,"left_children":[1,3,5,7,9,11,13,15,17,19,21,23,25,27,29,-1,-1,-1,-1,-1,-1,-1,-1,-1,-1,-1,-1,-1,-1,-1,-1],"loss_changes":[9.692329E3,2.1720205E3,2.6524155E3,1.6752686E2,2.3253021E2,5.103101E2,6.282202E2,6.357422E-1,1.9194092E1,1.0986444E2,1.1399095E2,4.4587845E1,1.5179034E2,8.354492E1,1.6207031E1,0E0,0E0,0E0,0E0,0E0,0E0,0E0,0E0,0E0,0E0,0E0,0E0,0E0,0E0,0E0,0E0],"parents":[2147483647,0,0,1,1,2,2,3,3,4,4,5,5,6,6,7,7,8,8,9,9,10,10,11,11,12,12,13,13,14,14],"right_children":[2,4,6,8,10,12,14,16,18,20,22,24,26,28,30,-1,-1,-1,-1,-1,-1,-1,-1,-1,-1,-1,-1,-1,-1,-1,-1],"split_conditions":[1.8903177E1,1.5421883E1,2.4503403E1,1.1932985E1,1.8678926E1,2.0548613E1,3.073894E1,1.63322E0,1.037E2,1.43E1,1.872151E1,7.93E1,2.4583735E1,2.3657894E1,1.041E2,-1.6727481E-2,-5.7775654E-2,-3.9263755E-2,-7.35002E-3,-3.3722871E-3,-2.7567927E-2,1.9021673E-2,-8.703435E-3,3.1793092E-3,-1.6628008E-2,8.234047E-3,1.9949911E-2,1.8027142E-2,3.6991756E-2,3.608138E-2,6.969671E-2],"split_indices":[12,12,12,12,13,11,12,3,5,10,13,5,13,13,7,0,0,0,0,0,0,0,0,0,0,0,0,0,0,0,0],"split_type":[0,0,0,0,0,0,0,0,0,0,0,0,0,0,0,0,0,0,0,0,0,0,0,0,0,0,0,0,0,0,0],"sum_hessian":[4.04E2,1.76E2,2.28E2,7.4E1,1.02E2,1.46E2,8.2E1,3.6E1,3.8E1,3.3E1,6.9E1,2.1E1,1.25E2,5.8E1,2.4E1,1E0,3.5E1,3.7E1,1E0,6E0,2.7E1,3E0,6.6E1,3E0,1.8E1,8.2E1,4.3E1,1E1,4.8E1,4E0,2E1],"tree_param":{"num_deleted":"0","num_feature":"14","num_nodes":"31","size_leaf_vector":"1"}},{"base_weights":[-2.903534E-1,-5.586558E0,3.9097471E0,-9.453756E0,-2.5529487E0,1.7347395E0,8.809989E0,-1.1565861E1,-7.317132E0,-5.9561453E0,-2.1086364E0,-1.3602515E0,2.8971279E0,6.738451E0,6.051747E-2,-1.6685663E-2,-5.850869E-2,-1.2063359E-2,-3.7533898E-2,-6.2935418E-3,-3.430082E-2,-2.4822969E-2,-7.1202144E-3,-1.3015196E-2,1.7329381E-3,1.9568093E-2,7.4479836E-3,3.6925975E-2,1.4524763E-2],"categories":[],"categories_nodes":[],"categories_segments":[],"categories_sizes":[],"default_left":[0,0,0,0,0,0,0,0,0,0,0,0,0,0,0,0,0,0,0,0,0,0,0,0,0,0,0,0,0],"id":2,"left_children":[1,3,5,7,9,11,13,15,17,19,21,23,25,27,-1,-1,-1,-1,-1,-1,-1,-1,-1,-1,-1,-1,-1,-1,-1],"loss_changes":[8.852944E3,2.0406216E3,2.3508066E3,2.628545E2,1.3864886E2,5.615659E2,3.8237988E2,2.3198242E0,2.0023193E1,3.807733E1,1.6889551E2,9.211544E1,1.5584418E2,8.763501E1,0E0,0E0,0E0,0E0,0E0,0E0,0E0,0E0,0E0,0E0,0E0,0E0,0E0,0E0,0E0],"parents":[2147483647,0,0,1,1,2,2,3,3,4,4,5,5,6,6,7,7,8,8,9,9,10,10,11,11,12,12,13,13],"right_children":[2,4,6,8,10,12,14,16,18,20,22,24,26,28,-1,-1,-1,-1,-1,-1,-1,-1,-1,-1,-1,-1,-1,-1,-1],"split_conditions":[1.8903177E1,1.5421883E1,2.552214E1,1.1932985E1,8.91E1,2.1500513E1,3.002412E1,1.63322E0,5.17104E1,8.66E1,1.6471548E1,2.0548613E1,1.74E0,1.85E0,6.051747E-2,-1.6685663E-2,-5.850869E-2,-1.2063359E-2,-3.7533898E-2,-6.2935418E-3,-3.430082E-2,-2.4822969E-2,-7.1202144E-3,-1.3015196E-2,1.7329381E-3,1.9568093E-2,7.4479836E-3,3.6925975E-2,1.4524763E-2],"split_indices":[12,12,12,12,7,11,12,3,2,7,12,11,3,3,0,0,0,0,0,0,0,0,0,0,0,0,0,0,0],"split_type":[0,0,0,0,0,0,0,0,0,0,0,0,0,0,0,0,0,0,0,0,0,0,0,0,0,0,0,0,0],"sum_hessian":[3.96E2,1.75E2,2.21E2,7.6E1,9.9E1,1.54E2,6.7E1,3.6E1,4E1,1E1,8.9E1,4.2E1,1.12E2,4.3E1,2.4E1,1E0,3.5E1,2E0,3.8E1,2E0,8E0,1.6E1,7.3E1,2.4E1,1.8E1,6.4E1,4.8E1,3.6E1,7E0],"tree_param":{"num_deleted":"0","num_feature":"14","num_nodes":"29","size_leaf_vector":"1"}},{"base_weights":[-1.3857617E-2,-5.5944443E0,4.3074546E0,-9.178075E0,-2.4087832E0,2.0728E0,9.058343E0,-5.733642E-2,-7.1372304E0,-2.69214E0,2.319892E-2,-1.0132123E0,3.1915693E0,6.948437E0,6.494319E-2,-1.2023144E-2,-3.648849E-2,-1.1696378E-2,-3.296166E-2,-1.4968908E-2,9.899241E-4,1.0353101E-2,2.4018053E-2,3.777803E-2,1.4461219E-2],"categories":[],"categories_nodes":[],"categories_segments":[],"categories_sizes":[],"default_left":[0,0,0,0,0,0,0,0,0,0,0,0,0,0,0,0,0,0,0,0,0,0,0,0,0],"id":3,"left_children":[1,3,5,7,9,11,13,-1,15,17,-1,19,21,23,-1,-1,-1,-1,-1,-1,-1,-1,-1,-1,-1],"loss_changes":[9.67028E3,1.9757324E3,2.3805747E3,3.0125244E2,2.0023346E2,5.3837695E2,5.06813E2,0E0,1.7385498E1,1.0981647E2,0E0,1.0134485E2,1.9605334E2,9.882446E1,0E0,0E0,0E0,0E0,0E0,0E0,0E0,0E0,0E0,0E0,0E0],"parents":[2147483647,0,0,1,1,2,2,3,3,4,4,5,5,6,6,8,8,9,9,11,11,12,12,13,13],"right_children":[2,4,6,8,10,12,14,-1,16,18,-1,20,22,24,-1,-1,-1,-1,-1,-1,-1,-1,-1,-1,-1],"split_conditions":[1.8987347E1,1.5826219E1,2.552214E1,1.1932985E1,5.8E1,2.1500513E1,3.073894E1,-5.733642E-2,5.17104E1,5.4E1,2.319892E-2,2.0218775E1,2.3074348E1,1.85E0,6.494319E-2,-1.2023144E-2,-3.648849E-2,-1.1696378E-2,-3.296166E-2,-1.4968908E-2,9.899241E-4,1.0353101E-2,2.4018053E-2,3.777803E-2,1.4461219E-2],"split_indices":[12,12,12,12,1,11,12,0,2,1,0,11,12,3,0,0,0,0,0,0,0,0,0,0,0],"split_type":[0,0,0,0,0,0,0,0,0,0,0,0,0,0,0,0,0,0,0,0,0,0,0,0,0],"sum_hessian":[3.99E2,1.74E2,2.25E2,8.1E1,9.3E1,1.54E2,7.1E1,3.6E1,4.5E1,9E1,3E0,4.1E1,1.13E2,4.8E1,2.3E1,2E0,4.3E1,8.4E1,6E0,1.5E1,2.6E1,6.8E1,4.5E1,4.1E1,7E0],"tree_param":{"num_deleted":"0","num_feature":"14","num_nodes":"25","size_leaf_vector":"1"}},{"base_weights":[-1.7004251E-1,-5.0466065E0,4.439161E0,-9.406224E0,-2.159494E0,2.5955856E0,1.0385361E1,-5.7543974E-2,-7.170293E0,-5.531004E0,-1.6755662E0,-1.3365135E0,3.367981E0,7.353682E0,1.2984316E1,-1.1983065E-2,-3.681778E-2,-8.308449E-3,-3.2176044E-2,-1.0645468E-2,5.4841647E-3,-1.8062682E-3,-2.2635853E-2,1.215413E-2,2.531659E-2,3.837409E-2,1.2737278E-2,3.543521E-2,6.904709E-2],"categories":[],"categories_nodes":[],"categories_segments":[],"categories_sizes":[],"default_left":[0,0,0,0,0,0,0,0,0,0,0,0,0,0,0,0,0,0,0,0,0,0,0,0,0,0,0,0,0],"id":4,"left_children":[1,3,5,7,9,11,13,-1,15,17,19,21,23,25,27,-1,-1,-1,-1,-1,-1,-1,-1,-1,-1,-1,-1,-1,-1],"loss_changes":[8.743508E3,2.3585752E3,2.165497E3,2.7006836E2,1.7836267E2,4.722201E2,2.7483936E2,0E0,1.8333008E1,3.828784E1,1.3058588E2,7.926926E1,1.9264636E2,1.74917E1,1.8913086E1,0E0,0E0,0E0,0E0,0E0,0E0,0E0,0E0,0E0,0E0,0E0,0E0,0E0,0E0],"parents":[2147483647,0,0,1,1,2,2,3,3,4,4,5,5,6,6,8,8,9,9,10,10,11,11,12,12,13,13,14,14],"right_children":[2,4,6,8,10,12,14,-1,16,18,20,22,24,26,28,-1,-1,-1,-1,-1,-1,-1,-1,-1,-1,-1,-1,-1,-1],"split_conditions":[2.1569353E1,1.5421883E1,2.7547604E1,1.1932985E1,8.91E1,1.8679152E1,3.002412E1,-5.7543974E-2,5.17104E1,2.85E1,2.136927E1,5.1E1,2.3643028E1,1.85E0,1.041E2,-1.1983065E-2,-3.681778E-2,-8.308449E-3,-3.2176044E-2,-1.0645468E-2,5.4841647E-3,-1.8062682E-3,-2.2635853E-2,1.215413E-2,2.531659E-2,3.837409E-2,1.2737278E-2,3.543521E-2,6.904709E-2],"split_indices":[13,12,12,12,7,12,12,0,2,4,12,1,12,3,7,0,0,0,0,0,0,0,0,0,0,0,0,0,0],"split_type":[0,0,0,0,0,0,0,0,0,0,0,0,0,0,0,0,0,0,0,0,0,0,0,0,0,0,0,0,0],"sum_hessian":[3.87E2,1.88E2,1.99E2,7.4E1,1.14E2,1.53E2,4.6E1,3.6E1,3.8E1,1.3E1,1.01E2,2.5E1,1.28E2,2.3E1,2.3E1,2E0,3.6E1,3E0,1E1,8.7E1,1.4E1,2E1,5E0,8.4E1,4.4E1,2.1E1,2E0,4E0,1.9E1],"tree_param":{"num_deleted":"0","num_feature":"14","num_nodes":"29","size_leaf_vector":"1"}},{"base_weights":[4.040331E-2,-4.8879023E0,4.707883E0,-9.436021E0,-2.1342838E0,2.1184464E0,8.660938E0,-1.1636126E1,-7.0454965E0,-5.52328E0,-1.5442257E0,-1.2384528E0,2.9948604E0,6.6689897E0,1.2935822E1,-1.6356744E-2,-5.8888048E-2,-1.194312E-2,-3.6189303E-2,-4.8412606E-3,-2.8671335E-2,-4.963403E-3,-2.5685774E-2,1.2805195E-2,-1.1091922E-2,1.6497845E-2,-7.841521E-3,3.546267E-2,1.5676364E-2,3.529347E-2,6.859573E-2],"categories":[],"categories_nodes":[],"categories_segments":[],"categories_sizes":[],"default_left":[0,0,0,0,0,0,0,0,0,0,0,0,0,0,0,0,0,0,0,0,0,0,0,0,0,0,0,0,0,0,0],"id":5,"left_children":[1,3,5,7,9,11,13,15,17,19,21,23,25,27,29,-1,-1,-1,-1,-1,-1,-1,-1,-1,-1,-1,-1,-1,-1,-1,-1],"loss_changes":[9.316129E3,2.447046E3,2.1107793E3,3.0721387E2,2.3943427E2,3.773473E2,6.1198975E2,5.2597656E0,1.6752441E1,1.1746643E1,2.0693837E2,1.0620891E2,1.4560858E2,6.457056E1,1.825293E1,0E0,0E0,0E0,0E0,0E0,0E0,0E0,0E0,0E0,0E0,0E0,0E0,0E0,0E0,0E0,0E0],"parents":[2147483647,0,0,1,1,2,2,3,3,4,4,5,5,6,6,7,7,8,8,9,9,10,10,11,11,12,12,13,13,14,14],"right_children":[2,4,6,8,10,12,14,16,18,20,22,24,26,28,30,-1,-1,-1,-1,-1,-1,-1,-1,-1,-1,-1,-1,-1,-1,-1,-1],"split_conditions":[2.1569353E1,1.5421883E1,2.4503403E1,1.1932985E1,8.96E1,1.8679152E1,3.073894E1,1.63322E0,5.17104E1,1.9E1,9.85E1,3.61E1,1.075E2,1.85E0,1.041E2,-1.6356744E-2,-5.8888048E-2,-1.194312E-2,-3.6189303E-2,-4.8412606E-3,-2.8671335E-2,-4.963403E-3,-2.5685774E-2,1.2805195E-2,-1.1091922E-2,1.6497845E-2,-7.841521E-3,3.546267E-2,1.5676364E-2,3.529347E-2,6.859573E-2],"split_indices":[13,12,12,12,7,12,12,3,2,1,5,9,7,3,7,0,0,0,0,0,0,0,0,0,0,0,0,0,0,0,0],"split_type":[0,0,0,0,0,0,0,0,0,0,0,0,0,0,0,0,0,0,0,0,0,0,0,0,0,0,0,0,0,0,0],"sum_hessian":[4.03E2,1.96E2,2.07E2,7.3E1,1.23E2,1.26E2,8.1E1,3.6E1,3.7E1,1.7E1,1.06E2,2.6E1,1E2,5.7E1,2.4E1,1E0,3.5E1,2E0,3.5E1,1E0,1.6E1,9.3E1,1.3E1,5E0,2.1E1,9.4E1,6E0,5E1,7E0,4E0,2E1],"tree_param":{"num_deleted":"0","num_feature":"14","num_nodes":"31","size_leaf_vector":"1"}},{"base_weights":[-2.9705975E-2,-5.4310803E0,4.130946E0,-9.113932E0,-2.594733E0,2.3594315E0,1.0503531E1,-1.1004304E1,-7.0334654E0,-3.2346864E0,-2.3695365E-1,-1.318514E0,3.3214786E0,7.453628E0,1.3011298E1,-2.4910273E-2,-5.6945737E-2,-1.1903306E-2,-3.6129124E-2,-1.3555233E-2,-4.4896238E-2,1.727061E-2,-5.007755E-3,-1.60425E-2,-8.0542004E-4,1.1382616E-2,2.6275558E-2,3.8932167E-2,1.2642564E-2,3.5152297E-2,6.907861E-2],"categories":[],"categories_nodes":[],"categories_segments":[],"categories_sizes":[],"default_left":[0,0,0,0,0,0,0,0,0,0,0,0,0,0,0,0,0,0,0,0,0,0,0,0,0,0,0,0,0,0,0],"id":6,"left_children":[1,3,5,7,9,11,13,15,17,19,21,23,25,27,29,-1,-1,-1,-1,-1,-1,-1,-1,-1,-1,-1,-1,-1,-1,-1,-1],"loss_changes":[8.831946E3,1.7625913E3,2.481404E3,2.1363281E2,1.4710266E2,6.235919E2,2.7014355E2,2.9010742E1,1.680835E1,2.0727905E2,6.5547585E1,8.042165E1,2.688944E2,1.9650513E1,2.314746E1,0E0,0E0,0E0,0E0,0E0,0E0,0E0,0E0,0E0,0E0,0E0,0E0,0E0,0E0,0E0,0E0],"parents":[2147483647,0,0,1,1,2,2,3,3,4,4,5,5,6,6,7,7,8,8,9,9,10,10,11,11,12,12,13,13,14,14],"right_children":[2,4,6,8,10,12,14,16,18,20,22,24,26,28,30,-1,-1,-1,-1,-1,-1,-1,-1,-1,-1,-1,-1,-1,-1,-1,-1],"split_conditions":[1.8903177E1,1.5421883E1,2.7547604E1,1.1932985E1,3.82E1,2.1500513E1,3.073894E1,3.4E1,5.17104E1,8.051E1,9.75E1,2.0218775E1,2.3643028E1,1.85E0,1.041E2,-2.4910273E-2,-5.6945737E-2,-1.1903306E-2,-3.6129124E-2,-1.3555233E-2,-4.4896238E-2,1.727061E-2,-5.007755E-3,-1.60425E-2,-8.0542004E-4,1.1382616E-2,2.6275558E-2,3.8932167E-2,1.2642564E-2,3.5152297E-2,6.907861E-2],"split_indices":[12,12,12,12,4,11,12,4,2,2,5,11,12,3,7,0,0,0,0,0,0,0,0,0,0,0,0,0,0,0,0],"split_type":[0,0,0,0,0,0,0,0,0,0,0,0,0,0,0,0,0,0,0,0,0,0,0,0,0,0,0,0,0,0,0],"sum_hessian":[3.91E2,1.7E2,2.21E2,7.3E1,9.7E1,1.74E2,4.7E1,3.6E1,3.7E1,7.6E1,2.1E1,3.6E1,1.38E2,2.3E1,2.4E1,3E0,3.3E1,2E0,3.5E1,7.1E1,5E0,3E0,1.8E1,1.3E1,2.3E1,9.1E1,4.7E1,2.1E1,2E0,4E0,2E1],"tree_param":{"num_deleted":"0","num_feature":"14","num_nodes":"31","size_leaf_vector":"1"}},{"base_weights":[4.31108E-2,-5.0995154E0,4.60572E0,-8.900286E0,-2.1999042E0,2.7622588E0,1.0228335E1,-1.1391481E1,-6.60765E0,-6.014242E0,-1.6840767E0,1.177949E0,5.057156E0,7.5444803E0,1.2610411E1,-1.6253576E-2,-5.7655986E-2,-3.3983152E-2,-9.111805E-3,-1.2858327E-2,-3.707036E-2,-9.728627E-3,2.3120204E-2,-3.8633826E-3,1.2117392E-2,2.11267E-2,3.718639E-2,3.929088E-2,1.2600426E-2,3.5011686E-2,6.672585E-2],"categories":[],"categories_nodes":[],"categories_segments":[],"categories_sizes":[],"default_left":[0,0,0,0,0,0,0,0,0,0,0,0,0,0,0,0,0,0,0,0,0,0,0,0,0,0,0,0,0,0,0],"id":7,"left_children":[1,3,5,7,9,11,13,15,17,19,21,23,25,27,29,-1,-1,-1,-1,-1,-1,-1,-1,-1,-1,-1,-1,-1,-1,-1,-1],"loss_changes":[9.033583E3,1.9751772E3,2.0862217E3,3.7021875E2,1.9449576E2,5.575963E2,2.2451758E2,3.4614258E0,2.6500366E1,3.876175E1,1.6249466E2,2.2782181E2,9.3303955E1,2.117627E1,9.567383E0,0E0,0E0,0E0,0E0,0E0,0E0,0E0,0E0,0E0,0E0,0E0,0E0,0E0,0E0,0E0,0E0],"parents":[2147483647,0,0,1,1,2,2,3,3,4,4,5,5,6,6,7,7,8,8,9,9,10,10,11,11,12,12,13,13,14,14],"right_children":[2,4,6,8,10,12,14,16,18,20,22,24,26,28,30,-1,-1,-1,-1,-1,-1,-1,-1,-1,-1,-1,-1,-1,-1,-1,-1],"split_conditions":[1.9338764E1,1.5826219E1,2.7547604E1,1.1932985E1,8.91E1,2.3074348E1,3.073894E1,1.63322E0,1.89E0,1.7383821E1,5.7E1,2.1753304E1,2.8998903E1,1.85E0,1.041E2,-1.6253576E-2,-5.7655986E-2,-3.3983152E-2,-9.111805E-3,-1.2858327E-2,-3.707036E-2,-9.728627E-3,2.3120204E-2,-3.8633826E-3,1.2117392E-2,2.11267E-2,3.718639E-2,3.929088E-2,1.2600426E-2,3.5011686E-2,6.672585E-2],"split_indices":[12,12,12,12,7,12,12,3,3,12,1,13,13,3,7,0,0,0,0,0,0,0,0,0,0,0,0,0,0,0,0],"split_type":[0,0,0,0,0,0,0,0,0,0,0,0,0,0,0,0,0,0,0,0,0,0,0,0,0,0,0,0,0,0,0],"sum_hessian":[3.83E2,1.8E2,2.03E2,7.7E1,1.03E2,1.54E2,4.9E1,3.5E1,4.2E1,1.1E1,9.2E1,9.2E1,6.2E1,2.5E1,2.4E1,1E0,3.4E1,4E1,2E0,4E0,7E0,8.9E1,3E0,3.6E1,5.6E1,4.8E1,1.4E1,2.3E1,2E0,4E0,2E1],"tree_param":{"num_deleted":"0","num_feature":"14","num_nodes":"31","size_leaf_vector":"1"}},{"base_weights":[-2.0187635E-2,-5.370547E0,3.9696066E0,-9.387713E0,-2.413876E0,2.0493727E0,8.978199E0,-1.1034522E1,-7.2844787E0,-4.4186296E0,-1.3305886E0,-1.1646787E0,3.1900363E0,6.656836E0,6.284885E-2,-1.621294E-2,-5.5771206E-2,-1.175035E-2,-3.7561595E-2,-1.7207889E-2,-4.283725E-2,1.4697039E-2,-8.241784E-3,-1.4836058E-2,1.7844167E-4,1.1321426E-2,2.392749E-2,3.6659043E-2,1.1654971E-2],"categories":[],"categories_nodes":[],"categories_segments":[],"categories_sizes":[],"default_left":[0,0,0,0,0,0,0,0,0,0,0,0,0,0,0,0,0,0,0,0,0,0,0,0,0,0,0,0,0],"id":8,"left_children":[1,3,5,7,9,11,13,15,17,19,21,23,25,27,-1,-1,-1,-1,-1,-1,-1,-1,-1,-1,-1,-1,-1,-1,-1],"loss_changes":[8.645438E3,2.0321357E3,2.2128997E3,1.7246436E2,2.1346478E2,6.232949E2,4.4991553E2,2.1240234E-1,2.1694702E1,1.1239093E2,9.575541E1,9.747244E1,1.737893E2,1.02622314E2,0E0,0E0,0E0,0E0,0E0,0E0,0E0,0E0,0E0,0E0,0E0,0E0,0E0,0E0,0E0],"parents":[2147483647,0,0,1,1,2,2,3,3,4,4,5,5,6,6,7,7,8,8,9,9,10,10,11,11,12,12,13,13],"right_children":[2,4,6,8,10,12,14,16,18,20,22,24,26,28,-1,-1,-1,-1,-1,-1,-1,-1,-1,-1,-1,-1,-1,-1,-1],"split_conditions":[1.8903177E1,1.5421883E1,2.552214E1,1.2312725E1,1.8678926E1,2.1500513E1,3.073894E1,1.63322E0,5.17104E1,9.23E1,1.872151E1,2.0218775E1,2.5095495E1,1.85E0,6.284885E-2,-1.621294E-2,-5.5771206E-2,-1.175035E-2,-3.7561595E-2,-1.7207889E-2,-4.283725E-2,1.4697039E-2,-8.241784E-3,-1.4836058E-2,1.7844167E-4,1.1321426E-2,2.392749E-2,3.6659043E-2,1.1654971E-2],"split_indices":[12,12,12,12,13,11,12,3,2,5,13,11,13,3,0,0,0,0,0,0,0,0,0,0,0,0,0,0,0],"split_type":[0,0,0,0,0,0,0,0,0,0,0,0,0,0,0,0,0,0,0,0,0,0,0,0,0,0,0,0,0],"sum_hessian":[4.03E2,1.72E2,2.31E2,7.2E1,1E2,1.68E2,6.3E1,3.8E1,3.4E1,3.4E1,6.6E1,4.4E1,1.24E2,4E1,2.3E1,1E0,3.7E1,2E0,3.2E1,2.9E1,5E0,4E0,6.2E1,1.7E1,2.7E1,8E1,4.4E1,3.4E1,6E0],"tree_param":{"num_deleted":"0","num_feature":"14","num_nodes":"29","size_leaf_vector":"1"}},{"base_weights":[-8.227021E-3,-5.5275316E0,4.0036387E0,-9.273778E0,-2.6695206E0,2.3007407E0,1.0142722E1,-1.0558726E1,-6.4871254E0,-4.9422507E0,-1.5445337E0,-1.1211724E0,3.3255205E0,7.3254275E0,6.3860886E-2,-5.3791277E-2,-2.0231012E-2,-1.4458916E-2,-3.6206856E-2,-2.9772663E-4,-2.8317044E-2,1.4638254E-2,-9.4289305E-3,-1.6485719E-2,4.2284216E-4,1.1101673E-2,2.7438115E-2,1.0199189E-2,3.7276287E-2],"categories":[],"categories_nodes":[],"categories_segments":[],"categories_sizes":[],"default_left":[0,0,0,0,0,0,0,0,0,0,0,0,0,0,0,0,0,0,0,0,0,0,0,0,0,0,0,0,0],"id":9,"left_children":[1,3,5,7,9,11,13,15,17,19,21,23,25,27,-1,-1,-1,-1,-1,-1,-1,-1,-1,-1,-1,-1,-1,-1,-1],"loss_changes":[8.679929E3,1.7418682E3,2.349775E3,1.8573389E2,2.3526172E2,6.314291E2,2.6942773E2,1.7543945E1,4.685388E1,1.0882007E2,1.04720215E2,1.1047246E2,3.1757007E2,2.6345215E0,0E0,0E0,0E0,0E0,0E0,0E0,0E0,0E0,0E0,0E0,0E0,0E0,0E0,0E0,0E0],"parents":[2147483647,0,0,1,1,2,2,3,3,4,4,5,5,6,6,7,7,8,8,9,9,10,10,11,11,12,12,13,13],"right_children":[2,4,6,8,10,12,14,16,18,20,22,24,26,28,-1,-1,-1,-1,-1,-1,-1,-1,-1,-1,-1,-1,-1,-1,-1],"split_conditions":[1.8903177E1,1.5421883E1,2.7547604E1,1.3626152E1,1.8678926E1,2.1500513E1,3.073894E1,1.901261E1,1.4276317E1,1.43E1,1.872151E1,2.0218775E1,2.3643028E1,8.75E1,6.3860886E-2,-5.3791277E-2,-2.0231012E-2,-1.4458916E-2,-3.6206856E-2,-2.9772663E-4,-2.8317044E-2,1.4638254E-2,-9.4289305E-3,-1.6485719E-2,4.2284216E-4,1.1101673E-2,2.7438115E-2,1.0199189E-2,3.7276287E-2],"split_indices":[12,12,12,12,13,11,12,13,12,10,13,11,12,5,0,0,0,0,0,0,0,0,0,0,0,0,0,0,0],"split_type":[0,0,0,0,0,0,0,0,0,0,0,0,0,0,0,0,0,0,0,0,0,0,0,0,0,0,0,0,0],"sum_hessian":[3.9E2,1.64E2,2.26E2,7E1,9.4E1,1.78E2,4.8E1,4.6E1,2.4E1,3E1,6.4E1,4.1E1,1.37E2,2.5E1,2.3E1,4.4E1,2E0,5E0,1.9E1,4E0,2.6E1,4E0,6E1,1.4E1,2.7E1,9.2E1,4.5E1,1E0,2.4E1],"tree_param":{"num_deleted":"0","num_feature":"14","num_nodes":"29","size_leaf_vector":"1"}},{"base_weights":[-3.1525217E-2,-5.2760305E0,4.102799E0,-9.031493E0,-2.3018222E0,2.43073E0,1.027687E1,-1.108572E1,-6.631478E0,-5.6441274E0,-1.8198963E0,-1.1502438E0,3.4924154E0,7.360808E0,1.2764729E1,-1.6037932E-2,-5.6027386E-2,-1.188986E-2,-3.464061E-2,-1.4751845E-2,-3.5733793E-2,-2.266567E-2,-6.00142E-3,-1.1986641E-2,3.756828E-3,1.2649963E-2,2.6020745E-2,3.845959E-2,1.2395315E-2,2.8092006E-2,6.7590445E-2],"categories":[],"categories_nodes":[],"categories_segments":[],"categories_sizes":[],"default_left":[0,0,0,0,0,0,0,0,0,0,0,0,0,0,0,0,0,0,0,0,0,0,0,0,0,0,0,0,0,0,0],"id":10,"left_children":[1,3,5,7,9,11,13,15,17,19,21,23,25,27,29,-1,-1,-1,-1,-1,-1,-1,-1,-1,-1,-1,-1,-1,-1,-1,-1],"loss_changes":[8.607911E3,1.9338779E3,2.2668303E3,3.061089E2,1.4919183E2,6.731459E2,2.4701416E2,1.7958984E0,3.1472656E1,2.7487152E1,1.4250067E2,9.9031456E1,2.1088147E2,1.9724854E1,5.3260254E1,0E0,0E0,0E0,0E0,0E0,0E0,0E0,0E0,0E0,0E0,0E0,0E0,0E0,0E0,0E0,0E0],"parents":[2147483647,0,0,1,1,2,2,3,3,4,4,5,5,6,6,7,7,8,8,9,9,10,10,11,11,12,12,13,13,14,14],"right_children":[2,4,6,8,10,12,14,16,18,20,22,24,26,28,30,-1,-1,-1,-1,-1,-1,-1,-1,-1,-1,-1,-1,-1,-1,-1,-1],"split_conditions":[1.8903177E1,1.5421883E1,2.7547604E1,1.1932985E1,8.91E1,2.1500513E1,3.073894E1,1.63322E0,1.2838781E1,1.7383821E1,1.6312857E1,2.0548613E1,2.3643028E1,1.85E0,1.041E2,-1.6037932E-2,-5.6027386E-2,-1.188986E-2,-3.464061E-2,-1.4751845E-2,-3.5733793E-2,-2.266567E-2,-6.00142E-3,-1.1986641E-2,3.756828E-3,1.2649963E-2,2.6020745E-2,3.845959E-2,1.2395315E-2,2.8092006E-2,6.7590445E-2],"split_indices":[12,12,12,12,7,11,12,3,12,12,12,11,12,3,7,0,0,0,0,0,0,0,0,0,0,0,0,0,0,0,0],"split_type":[0,0,0,0,0,0,0,0,0,0,0,0,0,0,0,0,0,0,0,0,0,0,0,0,0,0,0,0,0,0,0],"sum_hessian":[3.95E2,1.74E2,2.21E2,7.6E1,9.8E1,1.75E2,4.6E1,3.9E1,3.7E1,1.1E1,8.7E1,4E1,1.35E2,2.3E1,2.3E1,1E0,3.8E1,3E0,3.4E1,5E0,6E0,1.5E1,7.2E1,2.4E1,1.6E1,8.8E1,4.7E1,2.1E1,2E0,3E0,2E1],"tree_param":{"num_deleted":"0","num_feature":"14","num_nodes":"31","size_leaf_vector":"1"}},{"base_weights":[-1.3081932E-1,-5.197669E0,3.9184377E0,-9.032315E0,-2.3372815E0,1.3413093E0,7.446747E0,-1.11159315E1,-6.5715694E0,-5.4065237E0,-1.7099016E0,-3.0943258E-2,1.715997E0,5.926103E0,5.8696546E-2,-1.5997838E-2,-5.623477E-2,-5.8150575E-3,-3.432059E-2,-7.887587E-3,-3.0843966E-2,-5.708122E-3,-2.843667E-2,1.3415287E-2,2.4880096E-3,1.725941E-2,3.2289125E-2],"categories":[],"categories_nodes":[],"categories_segments":[],"categories_sizes":[],"default_left":[0,0,0,0,0,0,0,0,0,0,0,0,0,0,0,0,0,0,0,0,0,0,0,0,0,0,0],"id":11,"left_children":[1,3,5,7,9,11,13,15,17,19,21,-1,23,25,-1,-1,-1,-1,-1,-1,-1,-1,-1,-1,-1,-1,-1],"loss_changes":[7.714233E3,1.8106406E3,1.8904294E3,2.9098633E2,1.7753674E2,3.5482843E2,5.0484814E2,2.3920898E0,4.739612E1,3.6968384E1,1.7885046E2,0E0,1.3652155E2,6.5853516E1,0E0,0E0,0E0,0E0,0E0,0E0,0E0,0E0,0E0,0E0,0E0,0E0,0E0],"parents":[2147483647,0,0,1,1,2,2,3,3,4,4,5,5,6,6,7,7,8,8,9,9,10,10,12,12,13,13],"right_children":[2,4,6,8,10,12,14,16,18,20,22,-1,24,26,-1,-1,-1,-1,-1,-1,-1,-1,-1,-1,-1,-1,-1],"split_conditions":[2.0920813E1,1.5421883E1,2.3643028E1,1.1932985E1,8.96E1,1.6471548E1,3.002412E1,1.63322E0,1.2838781E1,2.85E1,9.85E1,-3.0943258E-2,1.73E0,2.3657894E1,5.8696546E-2,-1.5997838E-2,-5.623477E-2,-5.8150575E-3,-3.432059E-2,-7.887587E-3,-3.0843966E-2,-5.708122E-3,-2.843667E-2,1.3415287E-2,2.4880096E-3,1.725941E-2,3.2289125E-2],"split_indices":[13,12,12,12,7,12,12,3,12,4,5,0,3,13,0,0,0,0,0,0,0,0,0,0,0,0,0],"split_type":[0,0,0,0,0,0,0,0,0,0,0,0,0,0,0,0,0,0,0,0,0,0,0,0,0,0,0],"sum_hessian":[3.74E2,1.66E2,2.08E2,7E1,9.6E1,1.21E2,8.7E1,3.6E1,3.4E1,1.5E1,8.1E1,5E0,1.16E2,6.6E1,2.1E1,1E0,3.5E1,2E0,3.2E1,3E0,1.2E1,7.2E1,9E0,6.4E1,5.2E1,1.3E1,5.3E1],"tree_param":{"num_deleted":"0","num_feature":"14","num_nodes":"27","size_leaf_vector":"1"}},{"base_weights":[-4.2858455E-2,-2.9678102E0,6.8151617E0,-7.999254E0,-5.688744E-1,5.3054867E0,1.227932E1,-1.1082178E1,-5.929583E0,-6.1227937E0,-1.6005519E-1,4.3528376E0,7.942372E0,3.6411066E-2,6.582243E-2,-1.5957845E-2,-5.6101926E-2,-1.2345003E-2,-3.1477366E-2,-8.39297E-3,-3.389115E-2,-6.1869817E-3,4.905209E-3,2.4275724E-2,7.1835276E-3,4.44768E-2,2.4622383E-2],"categories":[],"categories_nodes":[],"categories_segments":[],"categories_sizes":[],"default_left":[0,0,0,0,0,0,0,0,0,0,0,0,0,0,0,0,0,0,0,0,0,0,0,0,0,0,0],"id":12,"left_children":[1,3,5,7,9,11,13,15,17,19,21,23,25,-1,-1,-1,-1,-1,-1,-1,-1,-1,-1,-1,-1,-1,-1],"loss_changes":[7.9837993E3,3.36301E3,9.164951E2,5.0854443E2,4.3042432E2,2.0407056E2,1.4715088E1,2.3583984E0,5.536316E1,2.6489655E1,2.2003838E2,9.848987E1,2.521936E1,0E0,0E0,0E0,0E0,0E0,0E0,0E0,0E0,0E0,0E0,0E0,0E0,0E0,0E0],"parents":[2147483647,0,0,1,1,2,2,3,3,4,4,5,5,6,6,7,7,8,8,9,9,10,10,11,11,12,12],"right_children":[2,4,6,8,10,12,14,16,18,20,22,24,26,-1,-1,-1,-1,-1,-1,-1,-1,-1,-1,-1,-1,-1,-1],"split_conditions":[2.2836073E1,1.6312857E1,3.002412E1,1.1932985E1,8.91E1,2.8998903E1,1.041E2,3.34E1,5.17104E1,2.8E1,1.9512245E1,9.049E1,9.798E1,3.6411066E-2,6.582243E-2,-1.5957845E-2,-5.6101926E-2,-1.2345003E-2,-3.1477366E-2,-8.39297E-3,-3.389115E-2,-6.1869817E-3,4.905209E-3,2.4275724E-2,7.1835276E-3,4.44768E-2,2.4622383E-2],"split_indices":[12,12,12,12,7,13,7,4,2,4,12,2,2,0,0,0,0,0,0,0,0,0,0,0,0,0,0],"split_type":[0,0,0,0,0,0,0,0,0,0,0,0,0,0,0,0,0,0,0,0,0,0,0,0,0,0,0],"sum_hessian":[3.96E2,2.78E2,1.18E2,8.9E1,1.89E2,9.4E1,2.4E1,3.4E1,5.5E1,1.2E1,1.77E2,7.1E1,2.3E1,5E0,1.9E1,1E0,3.3E1,6E0,4.9E1,2E0,1E1,9.1E1,8.6E1,6E1,1.1E1,1.6E1,7E0],"tree_param":{"num_deleted":"0","num_feature":"14","num_nodes":"27","size_leaf_vector":"1"}},{"base_weights":[-2.0089486E-1,-4.588047E0,4.0582085E0,-1.0086135E1,-3.1322901E0,1.4568611E0,6.4494834E0,-5.15086E-2,-1.9607376E-2,-4.997305E0,-1.9703387E0,4.107937E0,-4.8800173E-1,5.01273E0,9.922168E0,-1.5861526E-2,-4.1177638E-2,-1.5262725E-2,3.102438E-3,1.1389618E-2,2.8340217E-2,-1.2069419E-2,1.8470502E-3,4.2988013E-2,1.5082836E-2,4.07699E-2,6.3215725E-2],"categories":[],"categories_nodes":[],"categories_segments":[],"categories_sizes":[],"default_left":[0,0,0,0,0,0,0,0,0,0,0,0,0,0,0,0,0,0,0,0,0,0,0,0,0,0,0],"id":13,"left_children":[1,3,5,7,9,11,13,-1,-1,15,17,19,21,23,25,-1,-1,-1,-1,-1,-1,-1,-1,-1,-1,-1,-1],"loss_changes":[7.511438E3,1.5531758E3,1.2595935E3,1.4091309E1,3.3254846E2,5.124466E2,4.7913867E2,0E0,0E0,3.2845984E2,2.7947116E2,1.0699927E2,9.666561E1,5.250759E2,4.1243652E1,0E0,0E0,0E0,0E0,0E0,0E0,0E0,0E0,0E0,0E0,0E0,0E0],"parents":[2147483647,0,0,1,1,2,2,3,3,4,4,5,5,6,6,9,9,10,10,11,11,12,12,13,13,14,14],"right_children":[2,4,6,8,10,12,14,-1,-1,16,18,20,22,24,26,-1,-1,-1,-1,-1,-1,-1,-1,-1,-1,-1,-1],"split_conditions":[2.1569353E1,1.5761128E1,2.4786324E1,1.9E0,1.8678926E1,1.64E1,3.0754475E1,-5.15086E-2,-1.9607376E-2,2.1966093E1,9.8E1,2.2436932E1,9.72E1,9.89E1,1.131E2,-1.5861526E-2,-4.1177638E-2,-1.5262725E-2,3.102438E-3,1.1389618E-2,2.8340217E-2,-1.2069419E-2,1.8470502E-3,4.2988013E-2,1.5082836E-2,4.07699E-2,6.3215725E-2],"split_indices":[13,13,13,3,13,10,13,0,0,11,7,13,7,5,6,0,0,0,0,0,0,0,0,0,0,0,0],"split_type":[0,0,0,0,0,0,0,0,0,0,0,0,0,0,0,0,0,0,0,0,0,0,0,0,0,0,0],"sum_hessian":[4E2,1.97E2,2.03E2,4E1,1.57E2,9.8E1,1.05E2,3.8E1,2E0,5.9E1,9.8E1,4.1E1,5.7E1,7.6E1,2.9E1,3.9E1,2E1,6.9E1,2.9E1,2E1,2.1E1,1.7E1,4E1,2.6E1,5E1,2E1,9E0],"tree_param":{"num_deleted":"0","num_feature":"14","num_nodes":"27","size_leaf_vector":"1"}},{"base_weights":[-6.0071312E-2,-4.800761E0,4.1339045E0,-8.792859E0,-1.9732366E0,2.0181167E0,9.0836935E0,-1.0820495E1,-6.697474E0,-6.1734242E0,-1.4866173E0,-1.375533E0,3.0125551E0,6.9152756E0,1.2459913E1,-1.578918E-2,-5.4728143E-2,-3.4019515E-2,-6.3668727E-3,-1.2337476E-2,-3.969299E-2,-8.449057E-3,1.3356973E-2,2.2145407E-4,-1.1282903E-2,1.6266968E-2,-5.668024E-3,3.7822336E-2,1.6864745E-2,3.3706713E-2,6.654508E-2],"categories":[],"categories_nodes":[],"categories_segments":[],"categories_sizes":[],"default_left":[0,0,0,0,0,0,0,0,0,0,0,0,0,0,0,0,0,0,0,0,0,0,0,0,0,0,0,0,0,0,0],"id":14,"left_children":[1,3,5,7,9,11,13,15,17,19,21,23,25,27,29,-1,-1,-1,-1,-1,-1,-1,-1,-1,-1,-1,-1,-1,-1,-1,-1],"loss_changes":[7.7938403E3,2.0595967E3,2.1599907E3,2.504292E2,2.1360669E2,5.0023578E2,3.677412E2,9.1308594E-1,1.4427246E1,5.2369293E1,8.815765E1,4.2631645E1,1.17523315E2,6.647156E1,2.1959473E1,0E0,0E0,0E0,0E0,0E0,0E0,0E0,0E0,0E0,0E0,0E0,0E0,0E0,0E0,0E0,0E0],"parents":[2147483647,0,0,1,1,2,2,3,3,4,4,5,5,6,6,7,7,8,8,9,9,10,10,11,11,12,12,13,13,14,14],"right_children":[2,4,6,8,10,12,14,16,18,20,22,24,26,28,30,-1,-1,-1,-1,-1,-1,-1,-1,-1,-1,-1,-1,-1,-1,-1,-1],"split_conditions":[1.9512245E1,1.5421883E1,2.552214E1,1.1932985E1,8.91E1,2.1500513E1,3.073894E1,1.63322E0,1.037E2,1.7383821E1,6E1,3.05E1,1.071E2,1.84E0,1.041E2,-1.578918E-2,-5.4728143E-2,-3.4019515E-2,-6.3668727E-3,-1.2337476E-2,-3.969299E-2,-8.449057E-3,1.3356973E-2,2.2145407E-4,-1.1282903E-2,1.6266968E-2,-5.668024E-3,3.7822336E-2,1.6864745E-2,3.3706713E-2,6.654508E-2],"split_indices":[12,12,12,12,7,11,12,3,5,12,1,4,7,3,7,0,0,0,0,0,0,0,0,0,0,0,0,0,0,0,0],"split_type":[0,0,0,0,0,0,0,0,0,0,0,0,0,0,0,0,0,0,0,0,0,0,0,0,0,0,0,0,0,0,0],"sum_hessian":[3.9E2,1.83E2,2.07E2,7.5E1,1.08E2,1.46E2,6.1E1,3.6E1,3.9E1,1E1,9.8E1,3.3E1,1.13E2,3.9E1,2.2E1,1E0,3.5E1,3.8E1,1E0,4E0,6E0,9.4E1,4E0,1.3E1,2E1,1.07E2,6E0,3.2E1,7E0,4E0,1.8E1],"tree_param":{"num_deleted":"0","num_feature":"14","num_nodes":"31","size_leaf_vector":"1"}},{"base_weights":[-5.089361E-2,-8.398198E0,2.326497E0,-1.0961064E1,-6.413117E0,4.1229022E-1,8.399826E0,-1.5749706E-2,-5.545271E-2,-2.6259494E0,-6.6740074E0,-1.901912E0,1.826344E0,6.164428E0,6.267314E-2,-1.6795551E-2,7.6673506E-4,-3.4936305E-2,-1.9205263E-2,-1.2999739E-2,-4.1836148E-4,4.1457606E-3,1.6093142E-2,2.5483089E-2,4.273091E-2],"categories":[],"categories_nodes":[],"categories_segments":[],"categories_sizes":[],"default_left":[0,0,0,0,0,0,0,0,0,0,0,0,0,0,0,0,0,0,0,0,0,0,0,0,0],"id":15,"left_children":[1,3,5,7,9,11,13,-1,-1,15,17,19,21,23,-1,-1,-1,-1,-1,-1,-1,-1,-1,-1,-1],"loss_changes":[7.878081E3,3.774048E2,3.58885E3,2.4858398E0,3.3852295E1,7.7576154E2,6.067075E2,0E0,0E0,1.0703468E1,1.5758301E1,1.1401013E2,2.0142236E2,8.3606445E1,0E0,0E0,0E0,0E0,0E0,0E0,0E0,0E0,0E0,0E0,0E0],"parents":[2147483647,0,0,1,1,2,2,3,3,4,4,5,5,6,6,9,9,10,10,11,11,12,12,13,13],"right_children":[2,4,6,8,10,12,14,-1,-1,16,18,20,22,24,-1,-1,-1,-1,-1,-1,-1,-1,-1,-1,-1],"split_conditions":[1.6312857E1,1.1932985E1,2.5156673E1,3.34E1,5.17104E1,2.0920813E1,3.002412E1,-1.5749706E-2,-5.545271E-2,5.03496E1,5.7E1,5.33E1,2.1937395E1,3.0754475E1,6.267314E-2,-1.6795551E-2,7.6673506E-4,-3.4936305E-2,-1.9205263E-2,-1.2999739E-2,-4.1836148E-4,4.1457606E-3,1.6093142E-2,2.5483089E-2,4.273091E-2],"split_indices":[12,12,12,4,2,13,12,0,0,2,1,8,12,13,0,0,0,0,0,0,0,0,0,0,0],"split_type":[0,0,0,0,0,0,0,0,0,0,0,0,0,0,0,0,0,0,0,0,0,0,0,0,0],"sum_hessian":[3.95E2,8.7E1,3.08E2,3.6E1,5.1E1,2.35E2,7.3E1,1E0,3.5E1,4E0,4.7E1,8.9E1,1.46E2,4.9E1,2.4E1,3E0,1E0,4.1E1,6E0,6.4E1,2.5E1,8.6E1,6E1,3.6E1,1.3E1],"tree_param":{"num_deleted":"0","num_feature":"14","num_nodes":"25","size_leaf_vector":"1"}},{"base_weights":[1.02014944E-1,-4.614446E0,4.2483625E0,-8.788866E0,-2.047346E0,2.2278144E0,8.831395E0,-5.784609E-2,-7.241271E0,-5.2337418E0,-1.354975E0,-1.0168515E0,2.9788554E0,6.7029066E0,1.2241685E1,-1.11043155E-2,-3.7075236E-2,-7.6438617E-3,-2.898816E-2,-4.0686307E-3,-2.214181E-2,-1.04699E-3,-1.9713074E-2,1.6324876E-2,-6.817069E-3,2.1016025E-3,3.4247316E-2,3.332119E-2,6.532567E-2],"categories":[],"categories_nodes":[],"categories_segments":[],"categories_sizes":[],"default_left":[0,0,0,0,0,0,0,0,0,0,0,0,0,0,0,0,0,0,0,0,0,0,0,0,0,0,0,0,0],"id":16,"left_children":[1,3,5,7,9,11,13,-1,15,17,19,21,23,25,27,-1,-1,-1,-1,-1,-1,-1,-1,-1,-1,-1,-1,-1,-1],"loss_changes":[7.6073657E3,1.932346E3,1.8971946E3,2.131211E2,2.4441159E2,3.5637622E2,3.7524707E2,0E0,2.4536377E1,3.2920715E1,1.5442592E2,6.532212E1,1.5105591E2,3.487195E1,1.8563965E1,0E0,0E0,0E0,0E0,0E0,0E0,0E0,0E0,0E0,0E0,0E0,0E0,0E0,0E0],"parents":[2147483647,0,0,1,1,2,2,3,3,4,4,5,5,6,6,8,8,9,9,10,10,11,11,12,12,13,13,14,14],"right_children":[2,4,6,8,10,12,14,-1,16,18,20,22,24,26,28,-1,-1,-1,-1,-1,-1,-1,-1,-1,-1,-1,-1,-1,-1],"split_conditions":[2.1569353E1,1.5421883E1,2.552214E1,1.0469708E1,8.96E1,1.8679152E1,3.073894E1,-5.784609E-2,5.17104E1,2.85E1,9.85E1,5.1E1,1.075E2,8.85E1,1.041E2,-1.11043155E-2,-3.7075236E-2,-7.6438617E-3,-2.898816E-2,-4.0686307E-3,-2.214181E-2,-1.04699E-3,-1.9713074E-2,1.6324876E-2,-6.817069E-3,2.1016025E-3,3.4247316E-2,3.332119E-2,6.532567E-2],"split_indices":[13,12,12,12,7,12,12,0,2,4,5,1,7,5,7,0,0,0,0,0,0,0,0,0,0,0,0,0,0],"split_type":[0,0,0,0,0,0,0,0,0,0,0,0,0,0,0,0,0,0,0,0,0,0,0,0,0,0,0,0,0],"sum_hessian":[3.87E2,1.81E2,2.06E2,6.8E1,1.13E2,1.44E2,6.2E1,2.2E1,4.6E1,1.9E1,9.4E1,2.7E1,1.17E2,4E1,2.2E1,2E0,4.4E1,3E0,1.6E1,8.1E1,1.3E1,2.2E1,5E0,1.1E2,7E0,1E0,3.9E1,4E0,1.8E1],"tree_param":{"num_deleted":"0","num_feature":"14","num_nodes":"29","size_leaf_vector":"1"}},{"base_weights":[1.9829684E-1,-4.4403076E0,4.437636E0,-1.0295772E1,-2.8123114E0,2.9296265E0,9.4997635E0,-1.0542248E1,-1.9119874E-2,-1.6392578E0,-4.659393E0,4.555654E0,1.2008657E0,5.102124E0,1.0772468E1,-2.200745E-2,-5.383696E-2,-1.3950055E-2,-1.0702032E-4,-2.572411E-2,1.4080167E-2,1.08832205E-2,3.3537507E-2,-3.9734775E-3,1.3351222E-2,-4.7027967E-3,2.8684823E-2,7.198792E-2,4.7407284E-2],"categories":[],"categories_nodes":[],"categories_segments":[],"categories_sizes":[],"default_left":[0,0,0,0,0,0,0,0,0,0,0,0,0,0,0,0,0,0,0,0,0,0,0,0,0,0,0,0,0],"id":17,"left_children":[1,3,5,7,9,11,13,15,-1,17,19,21,23,25,27,-1,-1,-1,-1,-1,-1,-1,-1,-1,-1,-1,-1,-1,-1],"loss_changes":[7.452929E3,1.6964585E3,1.4836492E3,2.1896973E1,3.0220374E2,4.2742517E2,1.9689746E2,3.7617188E0,0E0,1.6563612E2,2.1407141E2,3.898224E2,2.2497191E2,5.1429626E1,2.261206E1,0E0,0E0,0E0,0E0,0E0,0E0,0E0,0E0,0E0,0E0,0E0,0E0,0E0,0E0],"parents":[2147483647,0,0,1,1,2,2,3,3,4,4,5,5,6,6,7,7,9,9,10,10,11,11,12,12,13,13,14,14],"right_children":[2,4,6,8,10,12,14,16,-1,18,20,22,24,26,28,-1,-1,-1,-1,-1,-1,-1,-1,-1,-1,-1,-1,-1,-1],"split_conditions":[2.1569353E1,1.5761128E1,2.9068151E1,1.9E0,3.48E1,2.6E1,2.832237E1,1.63322E0,-1.9119874E-2,3.46E1,4.08E1,2.3395025E1,2.4583735E1,9.58E1,1.66878E0,-2.200745E-2,-5.383696E-2,-1.3950055E-2,-1.0702032E-4,-2.572411E-2,1.4080167E-2,1.08832205E-2,3.3537507E-2,-3.9734775E-3,1.3351222E-2,-4.7027967E-3,2.8684823E-2,7.198792E-2,4.7407284E-2],"split_indices":[13,13,13,3,4,1,11,3,0,9,9,11,13,6,3,0,0,0,0,0,0,0,0,0,0,0,0,0,0],"split_type":[0,0,0,0,0,0,0,0,0,0,0,0,0,0,0,0,0,0,0,0,0,0,0,0,0,0,0,0,0],"sum_hessian":[3.77E2,1.8E2,1.97E2,3.8E1,1.42E2,1.53E2,4.4E1,3.6E1,2E0,8.8E1,5.4E1,7.8E1,7.5E1,1.1E1,3.3E1,2E0,3.4E1,5.1E1,3.7E1,5.1E1,3E0,3.8E1,4E1,3.2E1,4.3E1,1E0,1E1,6E0,2.7E1],"tree_param":{"num_deleted":"0","num_feature":"14","num_nodes":"29","size_leaf_vector":"1"}},{"base_weights":[-1.2348032E-3,-4.6111956E0,4.177258E0,-8.675195E0,-2.0396593E0,2.1305146E0,8.39352E0,-1.065124E1,-6.571498E0,-6.119291E0,-1.54456E0,1.18416555E-1,3.102837E0,6.4046097E0,1.1607255E1,-1.5562629E-2,-5.390711E-2,-3.343094E-2,-6.106615E-3,-5.86098E-3,-3.495745E-2,-2.2144755E-2,-4.815948E-3,3.501493E-3,-1.9387567E-2,1.704673E-2,-5.7494533E-3,3.478727E-2,1.2837441E-2,3.5382345E-2,6.2135603E-2],"categories":[],"categories_nodes":[],"categories_segments":[],"categories_sizes":[],"default_left":[0,0,0,0,0,0,0,0,0,0,0,0,0,0,0,0,0,0,0,0,0,0,0,0,0,0,0,0,0,0,0],"id":18,"left_children":[1,3,5,7,9,11,13,15,17,19,21,23,25,27,29,-1,-1,-1,-1,-1,-1,-1,-1,-1,-1,-1,-1,-1,-1,-1,-1],"loss_changes":[7.4546597E3,1.9052385E3,1.7339277E3,2.2515234E2,2.208082E2,2.6961682E2,3.47521E2,7.9174805E-1,1.4537842E1,4.3582825E1,1.6845473E2,1.0967278E2,1.2514569E2,7.3354126E1,1.2114258E0,0E0,0E0,0E0,0E0,0E0,0E0,0E0,0E0,0E0,0E0,0E0,0E0,0E0,0E0,0E0,0E0],"parents":[2147483647,0,0,1,1,2,2,3,3,4,4,5,5,6,6,7,7,8,8,9,9,10,10,11,11,12,12,13,13,14,14],"right_children":[2,4,6,8,10,12,14,16,18,20,22,24,26,28,30,-1,-1,-1,-1,-1,-1,-1,-1,-1,-1,-1,-1,-1,-1,-1,-1],"split_conditions":[1.9512245E1,1.5421883E1,2.552214E1,1.2312725E1,8.91E1,9.71E1,3.002412E1,1.63322E0,1.037E2,2.85E1,1.6312857E1,9.66E1,1.071E2,1.85E0,1.041E2,-1.5562629E-2,-5.390711E-2,-3.343094E-2,-6.106615E-3,-5.86098E-3,-3.495745E-2,-2.2144755E-2,-4.815948E-3,3.501493E-3,-1.9387567E-2,1.704673E-2,-5.7494533E-3,3.478727E-2,1.2837441E-2,3.5382345E-2,6.2135603E-2],"split_indices":[12,12,12,12,7,7,12,3,5,4,12,7,7,3,7,0,0,0,0,0,0,0,0,0,0,0,0,0,0,0,0],"split_type":[0,0,0,0,0,0,0,0,0,0,0,0,0,0,0,0,0,0,0,0,0,0,0,0,0,0,0,0,0,0,0],"sum_hessian":[3.85E2,1.83E2,2.02E2,7E1,1.13E2,1.37E2,6.5E1,3.4E1,3.6E1,1.1E1,1.02E2,4.5E1,9.2E1,4.2E1,2.3E1,1E0,3.3E1,3.5E1,1E0,2E0,9E0,1.6E1,8.6E1,4E1,5E0,8.6E1,6E0,3.6E1,6E0,5E0,1.8E1],"tree_param":{"num_deleted":"0","num_feature":"14","num_nodes":"31","size_leaf_vector":"1"}},{"base_weights":[-4.119565E-2,-5.336168E0,3.724301E0,-9.075432E0,-2.61418E0,2.1207013E0,9.752387E0,-1.1155521E1,-6.728418E0,-4.9915395E0,-1.7737461E0,1.1725517E-2,3.5397158E0,6.7195835E0,1.2152471E1,-1.5523724E-2,-5.6527007E-2,-3.4292374E-2,-6.0913465E-3,-1.9041488E-2,-3.9532743E-2,-1.2826546E-2,5.294299E-4,-2.6415927E-2,2.823751E-3,1.2548758E-2,2.4786986E-2,3.513027E-2,1.1672149E-2,3.2889336E-2,6.450534E-2],"categories":[],"categories_nodes":[],"categories_segments":[],"categories_sizes":[],"default_left":[0,0,0,0,0,0,0,0,0,0,0,0,0,0,0,0,0,0,0,0,0,0,0,0,0,0,0,0,0,0,0],"id":19,"left_children":[1,3,5,7,9,11,13,15,17,19,21,23,25,27,29,-1,-1,-1,-1,-1,-1,-1,-1,-1,-1,-1,-1,-1,-1,-1,-1],"loss_changes":[7.6761426E3,1.604792E3,2.154311E3,2.5203467E2,1.7895947E2,5.356459E2,2.6045264E2,5.9257812E0,1.601001E1,5.2669373E1,1.05908844E2,2.167435E2,1.4379553E2,1.4508301E1,1.9466797E1,0E0,0E0,0E0,0E0,0E0,0E0,0E0,0E0,0E0,0E0,0E0,0E0,0E0,0E0,0E0,0E0],"parents":[2147483647,0,0,1,1,2,2,3,3,4,4,5,5,6,6,7,7,8,8,9,9,10,10,11,11,12,12,13,13,14,14],"right_children":[2,4,6,8,10,12,14,16,18,20,22,24,26,28,30,-1,-1,-1,-1,-1,-1,-1,-1,-1,-1,-1,-1,-1,-1,-1,-1],"split_conditions":[2.0905878E1,1.5421883E1,2.7547604E1,1.1908093E1,1.8173939E1,2.0614872E1,3.073894E1,1.63322E0,4E1,3.58E1,9.8E1,1.6471548E1,2.5095495E1,1.85E0,1.041E2,-1.5523724E-2,-5.6527007E-2,-3.4292374E-2,-6.0913465E-3,-1.9041488E-2,-3.9532743E-2,-1.2826546E-2,5.294299E-4,-2.6415927E-2,2.823751E-3,1.2548758E-2,2.4786986E-2,3.513027E-2,1.1672149E-2,3.2889336E-2,6.450534E-2],"split_indices":[13,12,12,12,13,12,12,3,9,9,7,12,13,3,7,0,0,0,0,0,0,0,0,0,0,0,0,0,0,0,0],"split_type":[0,0,0,0,0,0,0,0,0,0,0,0,0,0,0,0,0,0,0,0,0,0,0,0,0,0,0,0,0,0,0],"sum_hessian":[3.83E2,1.59E2,2.24E2,6.6E1,9.3E1,1.78E2,4.6E1,3.3E1,3.3E1,2.3E1,7E1,7.2E1,1.06E2,2.2E1,2.4E1,1E0,3.2E1,3.2E1,1E0,1.8E1,5E0,4.9E1,2.1E1,6E0,6.6E1,6.3E1,4.3E1,2E1,2E0,4E0,2E1],"tree_param":{"num_deleted":"0","num_feature":"14","num_nodes":"31","size_leaf_vector":"1"}},{"base_weights":[-1.3380075E-2,-5.019842E0,3.7634833E0,-8.551297E0,-2.3916814E0,1.7316962E0,8.518693E0,-1.0707603E1,-6.5046554E0,-4.664376E0,-1.3510356E0,-1.2996912E0,2.778251E0,6.4741263E0,1.1997311E1,-1.5484914E-2,-5.4221902E-2,-1.0759809E-2,-3.3997077E-2,-1.8260125E-2,-4.1369162E-2,1.47964535E-2,-8.285526E-3,-8.312777E-3,1.985864E-2,8.841954E-3,2.0324148E-2,3.5458956E-2,1.0539856E-2,1.548376E-2,6.124825E-2],"categories":[],"categories_nodes":[],"categories_segments":[],"categories_sizes":[],"default_left":[0,0,0,0,0,0,0,0,0,0,0,0,0,0,0,0,0,0,0,0,0,0,0,0,0,0,0,0,0,0,0],"id":20,"left_children":[1,3,5,7,9,11,13,15,17,19,21,23,25,27,29,-1,-1,-1,-1,-1,-1,-1,-1,-1,-1,-1,-1,-1,-1,-1,-1],"loss_changes":[7.563473E3,1.5759204E3,2.188087E3,2.525127E2,2.3020526E2,5.1438544E2,4.059619E2,1.8078613E0,3.668799E1,8.30589E1,9.7252045E1,8.69412E1,1.4872357E2,1.0640784E2,1.5968994E1,0E0,0E0,0E0,0E0,0E0,0E0,0E0,0E0,0E0,0E0,0E0,0E0,0E0,0E0,0E0,0E0],"parents":[2147483647,0,0,1,1,2,2,3,3,4,4,5,5,6,6,7,7,8,8,9,9,10,10,11,11,12,12,13,13,14,14],"right_children":[2,4,6,8,10,12,14,16,18,20,22,24,26,28,30,-1,-1,-1,-1,-1,-1,-1,-1,-1,-1,-1,-1,-1,-1,-1,-1],"split_conditions":[1.8903177E1,1.5421883E1,2.552214E1,1.1932985E1,1.8664316E1,2.1500513E1,3.073894E1,1.63322E0,1.2838781E1,4.4E1,1.872151E1,5.53E1,2.4583735E1,1.85E0,8.44E1,-1.5484914E-2,-5.4221902E-2,-1.0759809E-2,-3.3997077E-2,-1.8260125E-2,-4.1369162E-2,1.47964535E-2,-8.285526E-3,-8.312777E-3,1.985864E-2,8.841954E-3,2.0324148E-2,3.5458956E-2,1.0539856E-2,1.548376E-2,6.124825E-2],"split_indices":[12,12,12,12,13,11,12,3,12,1,13,8,13,3,6,0,0,0,0,0,0,0,0,0,0,0,0,0,0,0,0],"split_type":[0,0,0,0,0,0,0,0,0,0,0,0,0,0,0,0,0,0,0,0,0,0,0,0,0,0,0,0,0,0,0],"sum_hessian":[3.98E2,1.71E2,2.27E2,7.2E1,9.9E1,1.6E2,6.7E1,3.3E1,3.9E1,3E1,6.9E1,4.1E1,1.19E2,4.4E1,2.3E1,1E0,3.2E1,3E0,3.6E1,2.5E1,5E0,4E0,6.5E1,3.9E1,2E0,6.8E1,5.1E1,3.8E1,6E0,1E0,2.2E1],"tree_param":{"num_deleted":"0","num_feature":"14","num_nodes":"31","size_leaf_vector":"1"}},{"base_weights":[-1.6920298E-1,-5.368024E0,3.827136E0,-8.370505E0,-2.4715245E0,1.7305236E0,8.468464E0,-1.0519458E1,-6.450095E0,-4.379147E0,-1.5086179E0,-1.4731845E0,2.8197799E0,6.246737E0,6.0367502E-2,-1.54462E-2,-5.3168472E-2,-1.069138E-2,-3.2955408E-2,-1.8348748E-2,-3.596092E-2,-8.874308E-3,2.1595657E-2,-1.0557912E-2,3.5850387E-3,8.965228E-3,2.3646733E-2,3.419803E-2,1.2878284E-2],"categories":[],"categories_nodes":[],"categories_segments":[],"categories_sizes":[],"default_left":[0,0,0,0,0,0,0,0,0,0,0,0,0,0,0,0,0,0,0,0,0,0,0,0,0,0,0,0,0],"id":21,"left_children":[1,3,5,7,9,11,13,15,17,19,21,23,25,27,-1,-1,-1,-1,-1,-1,-1,-1,-1,-1,-1,-1,-1,-1,-1],"loss_changes":[8.414149E3,1.5099292E3,2.213759E3,2.8705957E2,1.6054797E2,5.590099E2,4.9324756E2,2.529297E-1,1.508606E1,3.347339E1,1.03865204E2,5.8840813E1,2.2483362E2,8.250122E1,0E0,0E0,0E0,0E0,0E0,0E0,0E0,0E0,0E0,0E0,0E0,0E0,0E0,0E0,0E0],"parents":[2147483647,0,0,1,1,2,2,3,3,4,4,5,5,6,6,7,7,8,8,9,9,10,10,11,11,12,12,13,13],"right_children":[2,4,6,8,10,12,14,16,18,20,22,24,26,28,-1,-1,-1,-1,-1,-1,-1,-1,-1,-1,-1,-1,-1,-1,-1],"split_conditions":[1.8903177E1,1.5826219E1,2.552214E1,1.1932985E1,1.8678926E1,2.1500513E1,3.073894E1,1.63322E0,5.17104E1,9.23E1,5.8E1,2.243708E1,2.5095495E1,1.85E0,6.0367502E-2,-1.54462E-2,-5.3168472E-2,-1.069138E-2,-3.2955408E-2,-1.8348748E-2,-3.596092E-2,-8.874308E-3,2.1595657E-2,-1.0557912E-2,3.5850387E-3,8.965228E-3,2.3646733E-2,3.419803E-2,1.2878284E-2],"split_indices":[12,12,12,12,13,11,12,3,2,5,1,12,13,3,0,0,0,0,0,0,0,0,0,0,0,0,0,0,0],"split_type":[0,0,0,0,0,0,0,0,0,0,0,0,0,0,0,0,0,0,0,0,0,0,0,0,0,0,0,0,0],"sum_hessian":[4.03E2,1.75E2,2.28E2,8.5E1,9E1,1.58E2,7E1,3.8E1,4.7E1,2.9E1,6.1E1,4E1,1.18E2,4.5E1,2.5E1,1E0,3.7E1,2E0,4.5E1,2.5E1,4E0,5.9E1,2E0,3.1E1,9E0,7.8E1,4E1,3.8E1,7E0],"tree_param":{"num_deleted":"0","num_feature":"14","num_nodes":"29","size_leaf_vector":"1"}},{"base_weights":[7.282799E-2,-8.166266E0,2.3029242E0,-1.0813735E1,-6.0004983E0,4.596223E-1,8.069322E0,-6.0878713E-2,-8.699631E0,-2.5117524E0,-6.3398614E0,-1.8346136E0,1.8826634E0,6.1148024E0,6.0246646E-2,-1.4145402E-2,-4.628316E-2,-2.0908264E-2,2.7601656E-3,-3.2161675E-2,-5.908737E-3,-1.329448E-2,-3.2312903E-3,-2.4287966E-3,1.2196716E-2,3.2996677E-2,1.2821941E-2],"categories":[],"categories_nodes":[],"categories_segments":[],"categories_sizes":[],"default_left":[0,0,0,0,0,0,0,0,0,0,0,0,0,0,0,0,0,0,0,0,0,0,0,0,0,0,0],"id":22,"left_children":[1,3,5,7,9,11,13,-1,15,17,19,21,23,25,-1,-1,-1,-1,-1,-1,-1,-1,-1,-1,-1,-1,-1],"loss_changes":[7.331647E3,4.2248535E2,3.3338633E3,6.142578E-1,4.2089478E1,7.8373926E2,5.175244E2,0E0,3.2670532E1,3.300572E1,1.338623E1,8.839938E1,1.9631598E2,7.42522E1,0E0,0E0,0E0,0E0,0E0,0E0,0E0,0E0,0E0,0E0,0E0,0E0,0E0],"parents":[2147483647,0,0,1,1,2,2,3,3,4,4,5,5,6,6,8,8,9,9,10,10,11,11,12,12,13,13],"right_children":[2,4,6,8,10,12,14,-1,16,18,20,22,24,26,-1,-1,-1,-1,-1,-1,-1,-1,-1,-1,-1,-1,-1],"split_conditions":[1.6312857E1,1.2312725E1,2.5156673E1,5.61E1,5.17104E1,2.0920813E1,3.073894E1,-6.0878713E-2,1.73228E0,3.37E1,1.041E2,2.0369108E1,1.8679152E1,1.85E0,6.0246646E-2,-1.4145402E-2,-4.628316E-2,-2.0908264E-2,2.7601656E-3,-3.2161675E-2,-5.908737E-3,-1.329448E-2,-3.2312903E-3,-2.4287966E-3,1.2196716E-2,3.2996677E-2,1.2821941E-2],"split_indices":[12,12,12,8,2,13,12,0,3,9,5,11,12,3,0,0,0,0,0,0,0,0,0,0,0,0,0],"split_type":[0,0,0,0,0,0,0,0,0,0,0,0,0,0,0,0,0,0,0,0,0,0,0,0,0,0,0],"sum_hessian":[3.97E2,8.4E1,3.13E2,3.6E1,4.8E1,2.38E2,7.5E1,1.9E1,1.7E1,5E0,4.3E1,9.1E1,1.47E2,5.2E1,2.3E1,2E0,1.5E1,3E0,2E0,4.2E1,1E0,5.3E1,3.8E1,2.8E1,1.19E2,4.5E1,7E0],"tree_param":{"num_deleted":"0","num_feature":"14","num_nodes":"27","size_leaf_vector":"1"}},{"base_weights":[3.71257E-2,-4.377693E0,4.1255436E0,-8.404591E0,-1.9721429E0,1.662975E0,7.0786104E0,-1.0249367E1,-6.3775973E0,-2.3895195E0,1.3288605E0,-7.875991E-1,2.4130044E0,5.657583E0,1.0869122E1,-5.5140216E-2,-3.3872586E-2,-2.2550168E-2,-3.5617307E-2,-9.535256E-3,-2.7119033E-2,-5.0390577E-3,1.6036704E-2,1.1586492E-2,-8.925301E-3,1.376574E-2,-9.095345E-3,3.0190371E-2,1.2250398E-2,3.0030884E-2,5.7707008E-2],"categories":[],"categories_nodes":[],"categories_segments":[],"categories_sizes":[],"default_left":[0,0,0,0,0,0,0,0,0,0,0,0,0,0,0,0,0,0,0,0,0,0,0,0,0,0,0,0,0,0,0],"id":23,"left_children":[1,3,5,7,9,11,13,15,17,19,21,23,25,27,29,-1,-1,-1,-1,-1,-1,-1,-1,-1,-1,-1,-1,-1,-1,-1,-1],"loss_changes":[7.0574146E3,1.8045632E3,1.4644707E3,1.9638818E2,1.671289E2,2.0775674E2,4.340581E2,1.999292E1,1.8019165E1,1.448349E2,6.468389E1,8.7755905E1,1.2880634E2,6.941553E1,9.142578E0,0E0,0E0,0E0,0E0,0E0,0E0,0E0,0E0,0E0,0E0,0E0,0E0,0E0,0E0,0E0,0E0],"parents":[2147483647,0,0,1,1,2,2,3,3,4,4,5,5,6,6,7,7,8,8,9,9,10,10,11,11,12,12,13,13,14,14],"right_children":[2,4,6,8,10,12,14,16,18,20,22,24,26,28,30,-1,-1,-1,-1,-1,-1,-1,-1,-1,-1,-1,-1,-1,-1,-1,-1],"split_conditions":[2.1569353E1,1.5421883E1,2.3643028E1,1.1932985E1,2.1385971E1,1.8679152E1,3.002412E1,9.42E1,9.22E1,9.85E1,2.0548613E1,3.61E1,9.412E1,6.53E1,1.041E2,-5.5140216E-2,-3.3872586E-2,-2.2550168E-2,-3.5617307E-2,-9.535256E-3,-2.7119033E-2,-5.0390577E-3,1.6036704E-2,1.1586492E-2,-8.925301E-3,1.376574E-2,-9.095345E-3,3.0190371E-2,1.2250398E-2,3.0030884E-2,5.7707008E-2],"split_indices":[13,12,12,12,12,12,12,5,5,5,11,9,2,8,7,0,0,0,0,0,0,0,0,0,0,0,0,0,0,0,0],"split_type":[0,0,0,0,0,0,0,0,0,0,0,0,0,0,0,0,0,0,0,0,0,0,0,0,0,0,0,0,0,0,0],"sum_hessian":[3.89E2,1.87E2,2.02E2,6.9E1,1.18E2,1.11E2,9.1E1,3.4E1,3.5E1,1.05E2,1.3E1,2.6E1,8.5E1,6.8E1,2.3E1,2.6E1,8E0,1.2E1,2.3E1,9.2E1,1.3E1,6E0,7E0,6E0,2E1,7.9E1,6E0,6E1,8E0,4E0,1.9E1],"tree_param":{"num_deleted":"0","num_feature":"14","num_nodes":"31","size_leaf_vector":"1"}},{"base_weights":[-1.0630365E-1,-4.420652E0,4.143213E0,-8.476068E0,-1.9778391E0,1.7498688E0,8.044966E0,-1.0472468E1,-6.250584E0,-5.12479E0,-1.3895543E0,-2.6344624E-1,2.7842915E0,6.086573E0,1.2208001E1,-1.511754E-2,-5.297699E-2,-1.0338478E-2,-3.2794237E-2,-7.2765825E-3,-2.8609296E-2,-2.1856815E-2,-4.220077E-3,-4.1116113E-3,2.0742383E-2,1.5402548E-2,-7.4061123E-3,1.5676316E-2,3.2707892E-2,2.3328885E-2,6.352064E-2],"categories":[],"categories_nodes":[],"categories_segments":[],"categories_sizes":[],"default_left":[0,0,0,0,0,0,0,0,0,0,0,0,0,0,0,0,0,0,0,0,0,0,0,0,0,0,0,0,0,0,0],"id":24,"left_children":[1,3,5,7,9,11,13,15,17,19,21,23,25,27,29,-1,-1,-1,-1,-1,-1,-1,-1,-1,-1,-1,-1,-1,-1,-1,-1],"loss_changes":[7.2052026E3,1.9150269E3,1.8348926E3,2.5887695E2,2.2058917E2,2.589783E2,5.3715967E2,1.8449707E0,3.414734E1,3.3300568E1,1.6711324E2,1.09437256E2,1.0817175E2,5.0661987E1,2.6789062E1,0E0,0E0,0E0,0E0,0E0,0E0,0E0,0E0,0E0,0E0,0E0,0E0,0E0,0E0,0E0,0E0],"parents":[2147483647,0,0,1,1,2,2,3,3,4,4,5,5,6,6,7,7,8,8,9,9,10,10,11,11,12,12,13,13,14,14],"right_children":[2,4,6,8,10,12,14,16,18,20,22,24,26,28,30,-1,-1,-1,-1,-1,-1,-1,-1,-1,-1,-1,-1,-1,-1,-1,-1],"split_conditions":[2.1569353E1,1.5421883E1,2.458337E1,1.1932985E1,8.96E1,1.9999193E1,3.073894E1,1.63322E0,1.2838781E1,2.85E1,1.6312857E1,5.8E1,1.075E2,2.3395025E1,1.041E2,-1.511754E-2,-5.297699E-2,-1.0338478E-2,-3.2794237E-2,-7.2765825E-3,-2.8609296E-2,-2.1856815E-2,-4.220077E-3,-4.1116113E-3,2.0742383E-2,1.5402548E-2,-7.4061123E-3,1.5676316E-2,3.2707892E-2,2.3328885E-2,6.352064E-2],"split_indices":[13,12,12,12,7,12,12,3,12,4,12,1,7,11,7,0,0,0,0,0,0,0,0,0,0,0,0,0,0,0,0],"split_type":[0,0,0,0,0,0,0,0,0,0,0,0,0,0,0,0,0,0,0,0,0,0,0,0,0,0,0,0,0,0,0],"sum_hessian":[3.91E2,1.94E2,1.97E2,7.2E1,1.22E2,1.23E2,7.4E1,3.6E1,3.6E1,1.8E1,1.04E2,4.2E1,8.1E1,5.2E1,2.2E1,1E0,3.5E1,3E0,3.3E1,3E0,1.5E1,1.5E1,8.9E1,3.8E1,4E0,7.6E1,5E0,8E0,4.4E1,2E0,2E1],"tree_param":{"num_deleted":"0","num_feature":"14","num_nodes":"31","size_leaf_vector":"1"}},{"base_weights":[-2.9459488E-1,-4.507471E0,3.8144324E0,-9.943379E0,-3.040505E0,2.431974E0,8.957205E0,-5.0871253E-2,-3.6275938E0,-1.6253836E0,-4.8749123E0,4.1299887E0,9.051142E-1,4.8363875E-3,4.5642447E-2,-5.472684E-3,-2.1734267E-2,-2.6741296E-2,-3.9923643E-3,-3.3765588E-2,-1.482375E-2,1.5149072E-2,3.722775E-2,-7.1061295E-3,1.3639718E-2],"categories":[],"categories_nodes":[],"categories_segments":[],"categories_sizes":[],"default_left":[0,0,0,0,0,0,0,0,0,0,0,0,0,0,0,0,0,0,0,0,0,0,0,0,0],"id":25,"left_children":[1,3,5,7,9,11,13,-1,15,17,19,21,23,-1,-1,-1,-1,-1,-1,-1,-1,-1,-1,-1,-1],"loss_changes":[6.837657E3,1.5247542E3,1.4001501E3,2.2875488E1,3.9444226E2,4.0849005E2,4.8649414E1,0E0,7.0799255E-1,2.6971484E2,2.203529E2,2.5101843E2,3.643213E2,0E0,0E0,0E0,0E0,0E0,0E0,0E0,0E0,0E0,0E0,0E0,0E0],"parents":[2147483647,0,0,1,1,2,2,3,3,4,4,5,5,6,6,8,8,9,9,10,10,11,11,12,12],"right_children":[2,4,6,8,10,12,14,-1,16,18,20,22,24,-1,-1,-1,-1,-1,-1,-1,-1,-1,-1,-1,-1],"split_conditions":[2.1569353E1,1.5761128E1,2.9068151E1,1.9E0,3.44E1,1E0,5.73E1,-5.0871253E-2,7.836E1,8.91E1,8.7E1,3.84E1,2.4583735E1,4.8363875E-3,4.5642447E-2,-5.472684E-3,-2.1734267E-2,-2.6741296E-2,-3.9923643E-3,-3.3765588E-2,-1.482375E-2,1.5149072E-2,3.722775E-2,-7.1061295E-3,1.3639718E-2],"split_indices":[13,13,13,3,4,0,8,0,2,7,6,9,13,0,0,0,0,0,0,0,0,0,0,0,0],"split_type":[0,0,0,0,0,0,0,0,0,0,0,0,0,0,0,0,0,0,0,0,0,0,0,0,0],"sum_hessian":[3.93E2,1.94E2,1.99E2,4E1,1.54E2,1.58E2,4.1E1,3.8E1,2E0,8.8E1,6.6E1,7.4E1,8.4E1,1E0,4E1,1E0,1E0,1.5E1,7.3E1,3.2E1,3.4E1,5.7E1,1.7E1,3.7E1,4.7E1],"tree_param":{"num_deleted":"0","num_feature":"14","num_nodes":"25","size_leaf_vector":"1"}},{"base_weights":[-1.2015511E-1,-4.6915035E0,3.9023302E0,-8.292977E0,-1.9971033E0,1.1494142E0,7.228745E0,-1.0336359E1,-6.295403E0,-5.2696614E0,-1.5627054E0,-1.2750765E0,1.9818015E0,5.645575E0,5.5761024E-2,-1.4952568E-2,-5.22867E-2,-2.7655648E-2,-4.241583E-2,-7.1490165E-3,-3.1953733E-2,-9.047398E-3,1.19967945E-2,-1.316052E-3,-2.281089E-2,1.2376906E-2,-1.2580454E-2,3.0114748E-2,1.40838465E-2],"categories":[],"categories_nodes":[],"categories_segments":[],"categories_sizes":[],"default_left":[0,0,0,0,0,0,0,0,0,0,0,0,0,0,0,0,0,0,0,0,0,0,0,0,0,0,0,0,0],"id":26,"left_children":[1,3,5,7,9,11,13,15,17,19,21,23,25,27,-1,-1,-1,-1,-1,-1,-1,-1,-1,-1,-1,-1,-1,-1,-1],"loss_changes":[7.1896987E3,1.7592356E3,1.896418E3,2.5330908E2,1.4245386E2,2.346102E2,5.209214E2,1.609375E0,2.3304321E1,4.2520172E1,9.722647E1,9.8582405E1,1.9715424E2,5.669336E1,0E0,0E0,0E0,0E0,0E0,0E0,0E0,0E0,0E0,0E0,0E0,0E0,0E0,0E0,0E0],"parents":[2147483647,0,0,1,1,2,2,3,3,4,4,5,5,6,6,7,7,8,8,9,9,10,10,11,11,12,12,13,13],"right_children":[2,4,6,8,10,12,14,16,18,20,22,24,26,28,-1,-1,-1,-1,-1,-1,-1,-1,-1,-1,-1,-1,-1,-1,-1],"split_conditions":[2.1301516E1,1.5826219E1,2.3643028E1,1.1932985E1,8.91E1,1.8679152E1,3.002412E1,1.63322E0,9.84E1,2.85E1,1.026E2,5.1E1,1.85E0,1.85E0,5.5761024E-2,-1.4952568E-2,-5.22867E-2,-2.7655648E-2,-4.241583E-2,-7.1490165E-3,-3.1953733E-2,-9.047398E-3,1.19967945E-2,-1.316052E-3,-2.281089E-2,1.2376906E-2,-1.2580454E-2,3.0114748E-2,1.40838465E-2],"split_indices":[13,12,12,12,7,12,12,3,7,4,7,1,3,3,0,0,0,0,0,0,0,0,0,0,0,0,0,0,0],"split_type":[0,0,0,0,0,0,0,0,0,0,0,0,0,0,0,0,0,0,0,0,0,0,0,0,0,0,0,0,0],"sum_hessian":[3.89E2,1.82E2,2.07E2,7.7E1,1.05E2,1.14E2,9.3E1,3.6E1,4.1E1,1.1E1,9.4E1,2.9E1,8.5E1,6.8E1,2.5E1,1E0,3.5E1,3.3E1,8E0,3E0,8E0,8.9E1,5E0,2.3E1,6E0,7.7E1,8E0,5.9E1,9E0],"tree_param":{"num_deleted":"0","num_feature":"14","num_nodes":"29","size_leaf_vector":"1"}},{"base_weights":[5.910545E-2,-4.87538E0,3.8942778E0,-8.522732E0,-2.263129E0,1.6408138E0,7.8173294E0,-9.998438E0,-5.747564E0,-5.4630423E0,-1.6854068E0,-7.8629076E-1,2.4193919E0,6.070942E0,1.1881379E1,-5.1459447E-2,-1.2297443E-2,-2.94139E-2,-5.579834E-3,-7.122209E-3,-3.1769946E-2,-1.1273013E-2,1.6706474E-3,-2.2942523E-2,-7.3833077E-4,7.7311033E-3,2.085726E-2,2.606985E-2,4.089998E-2,3.1487532E-2,6.3627414E-2],"categories":[],"categories_nodes":[],"categories_segments":[],"categories_sizes":[],"default_left":[0,0,0,0,0,0,0,0,0,0,0,0,0,0,0,0,0,0,0,0,0,0,0,0,0,0,0,0,0,0,0],"id":27,"left_children":[1,3,5,7,9,11,13,15,17,19,21,23,25,27,29,-1,-1,-1,-1,-1,-1,-1,-1,-1,-1,-1,-1,-1,-1,-1,-1],"loss_changes":[7.3995806E3,1.6099653E3,1.9320732E3,2.3330176E2,1.7750726E2,2.6834866E2,4.9566113E2,7.42417E1,1.0344299E1,4.4921814E1,1.00760864E2,8.430899E1,1.5724377E2,6.2178955E1,2.8269043E1,0E0,0E0,0E0,0E0,0E0,0E0,0E0,0E0,0E0,0E0,0E0,0E0,0E0,0E0,0E0,0E0],"parents":[2147483647,0,0,1,1,2,2,3,3,4,4,5,5,6,6,7,7,8,8,9,9,10,10,11,11,12,12,13,13,14,14],"right_children":[2,4,6,8,10,12,14,16,18,20,22,24,26,28,30,-1,-1,-1,-1,-1,-1,-1,-1,-1,-1,-1,-1,-1,-1,-1,-1],"split_conditions":[2.0920813E1,1.5421883E1,2.458337E1,1.3510609E1,8.91E1,1.8940504E1,3.073894E1,5.8E1,1.037E2,2.85E1,1.992963E1,1.6471548E1,2.5095495E1,3.0754475E1,1.041E2,-5.1459447E-2,-1.2297443E-2,-2.94139E-2,-5.579834E-3,-7.122209E-3,-3.1769946E-2,-1.1273013E-2,1.6706474E-3,-2.2942523E-2,-7.3833077E-4,7.7311033E-3,2.085726E-2,2.606985E-2,4.089998E-2,3.1487532E-2,6.3627414E-2],"split_indices":[13,12,12,12,7,12,12,1,5,4,12,12,13,13,7,0,0,0,0,0,0,0,0,0,0,0,0,0,0,0,0],"split_type":[0,0,0,0,0,0,0,0,0,0,0,0,0,0,0,0,0,0,0,0,0,0,0,0,0,0,0,0,0,0,0],"sum_hessian":[3.89E2,1.7E2,2.19E2,7E1,1E2,1.4E2,7.9E1,4.4E1,2.6E1,1.4E1,8.6E1,3.4E1,1.06E2,5.7E1,2.2E1,4.2E1,2E0,2.5E1,1E0,3E0,1.1E1,6.7E1,1.9E1,4E0,3E1,7.2E1,3.4E1,4.3E1,1.4E1,4E0,1.8E1],"tree_param":{"num_deleted":"0","num_feature":"14","num_nodes":"31","size_leaf_vector":"1"}},{"base_weights":[-1.3463806E-2,-4.462369E0,4.236304E0,-8.429236E0,-2.0650403E0,1.4494815E0,7.269292E0,-1.0329937E1,-6.2415924E0,-5.389887E0,-1.5436952E0,-1.3308276E0,2.1935008E0,5.6328797E0,1.1458368E1,-1.4786539E-2,-5.2262925E-2,-3.1781565E-2,-5.5658864E-3,-7.0955013E-3,-3.0985301E-2,-5.079773E-3,-2.3387956E-2,-1.1189514E-3,-2.2150673E-2,1.245405E-2,-1.0433271E-2,1.5217677E-2,3.0539703E-2,3.3695467E-2,6.1305482E-2],"categories":[],"categories_nodes":[],"categories_segments":[],"categories_sizes":[],"default_left":[0,0,0,0,0,0,0,0,0,0,0,0,0,0,0,0,0,0,0,0,0,0,0,0,0,0,0,0,0,0,0],"id":28,"left_children":[1,3,5,7,9,11,13,15,17,19,21,23,25,27,29,-1,-1,-1,-1,-1,-1,-1,-1,-1,-1,-1,-1,-1,-1,-1,-1],"loss_changes":[7.430375E3,1.808491E3,1.6883955E3,2.3490479E2,2.0142017E2,2.2219121E2,5.93542E2,2.5456543E0,1.410437E1,4.248761E1,1.7055954E2,7.792268E1,1.12089874E2,6.8747314E1,1.5866699E1,0E0,0E0,0E0,0E0,0E0,0E0,0E0,0E0,0E0,0E0,0E0,0E0,0E0,0E0,0E0,0E0],"parents":[2147483647,0,0,1,1,2,2,3,3,4,4,5,5,6,6,7,7,8,8,9,9,10,10,11,11,12,12,13,13,14,14],"right_children":[2,4,6,8,10,12,14,16,18,20,22,24,26,28,30,-1,-1,-1,-1,-1,-1,-1,-1,-1,-1,-1,-1,-1,-1,-1,-1],"split_conditions":[2.1569353E1,1.5421883E1,2.3503607E1,1.1932985E1,8.91E1,1.8459948E1,3.002412E1,1.63322E0,1.037E2,2.85E1,9.85E1,5.1E1,1.95E1,2.3657894E1,1.041E2,-1.4786539E-2,-5.2262925E-2,-3.1781565E-2,-5.5658864E-3,-7.0955013E-3,-3.0985301E-2,-5.079773E-3,-2.3387956E-2,-1.1189514E-3,-2.2150673E-2,1.245405E-2,-1.0433271E-2,1.5217677E-2,3.0539703E-2,3.3695467E-2,6.1305482E-2],"split_indices":[13,12,12,12,7,12,12,3,5,4,5,1,10,13,7,0,0,0,0,0,0,0,0,0,0,0,0,0,0,0,0],"split_type":[0,0,0,0,0,0,0,0,0,0,0,0,0,0,0,0,0,0,0,0,0,0,0,0,0,0,0,0,0,0,0],"sum_hessian":[3.91E2,1.91E2,2E2,7.1E1,1.2E2,1.05E2,9.5E1,3.6E1,3.5E1,1.5E1,1.05E2,2.2E1,8.3E1,7E1,2.5E1,1E0,3.5E1,3.4E1,1E0,3E0,1.2E1,9.1E1,1.4E1,1.7E1,5E0,7.8E1,5E0,1.2E1,5.8E1,5E0,2E1],"tree_param":{"num_deleted":"0","num_feature":"14","num_nodes":"31","size_leaf_vector":"1"}},{"base_weights":[-8.2146734E-2,-5.0062943E0,3.6220257E0,-8.471438E0,-2.3306162E0,1.997763E0,9.283697E0,-1.0305855E1,-6.414089E0,-6.266028E0,-1.8674526E0,-8.3577627E-1,3.0640163E0,6.806966E0,1.1587219E1,-5.475372E-2,-3.505564E-2,-2.058516E-2,-3.598722E-2,-1.4740736E-2,-3.9932955E-2,-1.0557188E-2,1.351289E-2,-9.425563E-3,6.560298E-3,1.0944267E-2,2.3167908E-2,8.949661E-3,3.4655426E-2,3.1226797E-2,6.153659E-2],"categories":[],"categories_nodes":[],"categories_segments":[],"categories_sizes":[],"default_left":[0,0,0,0,0,0,0,0,0,0,0,0,0,0,0,0,0,0,0,0,0,0,0,0,0,0,0,0,0,0,0],"id":29,"left_children":[1,3,5,7,9,11,13,15,17,19,21,23,25,27,29,-1,-1,-1,-1,-1,-1,-1,-1,-1,-1,-1,-1,-1,-1,-1,-1],"loss_changes":[7.350569E3,1.5842451E3,2.096543E3,2.169502E2,1.6874976E2,5.4638965E2,2.1209131E2,3.9626465E0,3.8745605E1,3.3540558E1,1.0605798E2,1.151635E2,1.6980273E2,4.4069824E0,1.9303223E1,0E0,0E0,0E0,0E0,0E0,0E0,0E0,0E0,0E0,0E0,0E0,0E0,0E0,0E0,0E0,0E0],"parents":[2147483647,0,0,1,1,2,2,3,3,4,4,5,5,6,6,7,7,8,8,9,9,10,10,11,11,12,12,13,13,14,14],"right_children":[2,4,6,8,10,12,14,16,18,20,22,24,26,28,30,-1,-1,-1,-1,-1,-1,-1,-1,-1,-1,-1,-1,-1,-1,-1,-1],"split_conditions":[1.8903177E1,1.5421883E1,2.7547604E1,1.1932985E1,8.91E1,2.1569353E1,3.073894E1,9.42E1,9.22E1,1.7383821E1,6E1,9.78E1,2.3643028E1,8.75E1,1.041E2,-5.475372E-2,-3.505564E-2,-2.058516E-2,-3.598722E-2,-1.4740736E-2,-3.9932955E-2,-1.0557188E-2,1.351289E-2,-9.425563E-3,6.560298E-3,1.0944267E-2,2.3167908E-2,8.949661E-3,3.4655426E-2,3.1226797E-2,6.153659E-2],"split_indices":[12,12,12,12,7,13,12,5,5,12,1,7,12,5,7,0,0,0,0,0,0,0,0,0,0,0,0,0,0,0,0],"split_type":[0,0,0,0,0,0,0,0,0,0,0,0,0,0,0,0,0,0,0,0,0,0,0,0,0,0,0,0,0,0,0],"sum_hessian":[4.01E2,1.72E2,2.29E2,7.4E1,9.8E1,1.79E2,5E1,3.7E1,3.7E1,9E0,8.9E1,4.9E1,1.3E2,2.6E1,2.4E1,2.9E1,8E0,1.1E1,2.6E1,4E0,5E0,8.5E1,4E0,3.3E1,1.6E1,8.5E1,4.5E1,1E0,2.5E1,4E0,2E1],"tree_param":{"num_deleted":"0","num_feature":"14","num_nodes":"31","size_leaf_vector":"1"}},{"base_weights":[-1.0197289E-1,-5.0017314E0,3.5247293E0,-8.06361E0,-2.5055327E0,2.0061827E0,9.297754E0,-4.9317908E-2,-6.1491857E0,-4.429968E0,-1.5787855E0,-1.33757E0,2.9949787E0,6.715696E0,5.9633262E-2,-9.7537255E-3,-3.222434E-2,-1.683926E-2,-4.058561E-2,1.50204785E-2,-9.642748E-3,-1.4456875E-2,-1.8362846E-3,8.767092E-3,2.2209672E-2,3.5489164E-2,1.4197409E-2],"categories":[],"categories_nodes":[],"categories_segments":[],"categories_sizes":[],"default_left":[0,0,0,0,0,0,0,0,0,0,0,0,0,0,0,0,0,0,0,0,0,0,0,0,0,0,0],"id":30,"left_children":[1,3,5,7,9,11,13,-1,15,17,19,21,23,25,-1,-1,-1,-1,-1,-1,-1,-1,-1,-1,-1,-1,-1],"loss_changes":[7.0189956E3,1.2638301E3,1.9713667E3,1.9779004E2,1.6065167E2,6.0244446E2,2.3893872E2,0E0,3.584265E1,9.0148315E1,1.0998389E2,6.2260567E1,2.43719E2,1.8358276E1,0E0,0E0,0E0,0E0,0E0,0E0,0E0,0E0,0E0,0E0,0E0,0E0,0E0],"parents":[2147483647,0,0,1,1,2,2,3,3,4,4,5,5,6,6,8,8,9,9,10,10,11,11,12,12,13,13],"right_children":[2,4,6,8,10,12,14,-1,16,18,20,22,24,26,-1,-1,-1,-1,-1,-1,-1,-1,-1,-1,-1,-1,-1],"split_conditions":[1.8903177E1,1.5421883E1,2.7547604E1,1.1932985E1,1.8664316E1,2.1500513E1,3.073894E1,-4.9317908E-2,1.2838781E1,4.4E1,1.872151E1,2.0218775E1,2.3074348E1,4.15E1,5.9633262E-2,-9.7537255E-3,-3.222434E-2,-1.683926E-2,-4.058561E-2,1.50204785E-2,-9.642748E-3,-1.4456875E-2,-1.8362846E-3,8.767092E-3,2.2209672E-2,3.5489164E-2,1.4197409E-2],"split_indices":[12,12,12,12,13,11,12,0,12,1,13,11,12,4,0,0,0,0,0,0,0,0,0,0,0,0,0],"split_type":[0,0,0,0,0,0,0,0,0,0,0,0,0,0,0,0,0,0,0,0,0,0,0,0,0,0,0],"sum_hessian":[3.93E2,1.67E2,2.26E2,7.4E1,9.3E1,1.8E2,4.6E1,3.6E1,3.8E1,2.9E1,6.4E1,4.1E1,1.39E2,2.5E1,2.1E1,3E0,3.5E1,2.4E1,5E0,4E0,6E1,1.5E1,2.6E1,7.6E1,6.3E1,2.2E1,3E0],"tree_param":{"num_deleted":"0","num_feature":"14","num_nodes":"27","size_leaf_vector":"1"}},{"base_weights":[3.349535E-2,-4.386035E0,3.9525433E0,-8.143738E0,-2.0361147E0,1.7750334E0,7.7472034E0,-1.0098965E1,-6.1285625E0,-1.5904337E0,-5.8032866E0,-1.4329753E0,2.546317E0,6.0319877E0,5.88053E-2,-5.4248903E-2,-3.1043686E-2,-3.176262E-2,-6.990859E-3,-2.5398957E-2,-5.0211465E-3,-4.3977644E-2,-1.603862E-2,-2.1267822E-2,-1.0743568E-4,1.73448E-2,5.9361374E-3,2.5829302E-2,4.027506E-2],"categories":[],"categories_nodes":[],"categories_segments":[],"categories_sizes":[],"default_left":[0,0,0,0,0,0,0,0,0,0,0,0,0,0,0,0,0,0,0,0,0,0,0,0,0,0,0,0,0],"id":31,"left_children":[1,3,5,7,9,11,13,15,17,19,21,23,25,27,-1,-1,-1,-1,-1,-1,-1,-1,-1,-1,-1,-1,-1,-1,-1],"loss_changes":[6.928156E3,1.6435151E3,1.7379851E3,2.2179688E2,1.8720819E2,3.4015155E2,4.5917432E2,3.486621E1,3.137622E1,2.117193E2,6.498505E1,1.07401764E2,1.3381653E2,5.651184E1,0E0,0E0,0E0,0E0,0E0,0E0,0E0,0E0,0E0,0E0,0E0,0E0,0E0,0E0,0E0],"parents":[2147483647,0,0,1,1,2,2,3,3,4,4,5,5,6,6,7,7,8,8,9,9,10,10,11,11,12,12,13,13],"right_children":[2,4,6,8,10,12,14,16,18,20,22,24,26,28,-1,-1,-1,-1,-1,-1,-1,-1,-1,-1,-1,-1,-1,-1,-1],"split_conditions":[2.1465025E1,1.5421883E1,2.458337E1,1.1908093E1,9.85E1,1.8679152E1,3.073894E1,9.42E1,1.88E0,8.91E1,1.9751482E1,8.85E1,1.73228E0,3.0754475E1,5.88053E-2,-5.4248903E-2,-3.1043686E-2,-3.176262E-2,-6.990859E-3,-2.5398957E-2,-5.0211465E-3,-4.3977644E-2,-1.603862E-2,-2.1267822E-2,-1.0743568E-4,1.73448E-2,5.9361374E-3,2.5829302E-2,4.027506E-2],"split_indices":[13,12,12,12,5,12,12,5,3,7,13,6,3,13,0,0,0,0,0,0,0,0,0,0,0,0,0,0,0],"split_type":[0,0,0,0,0,0,0,0,0,0,0,0,0,0,0,0,0,0,0,0,0,0,0,0,0,0,0,0,0],"sum_hessian":[3.98E2,1.87E2,2.11E2,7.1E1,1.16E2,1.35E2,7.6E1,3.4E1,3.7E1,1.05E2,1.1E1,2.6E1,1.09E2,5.5E1,2.1E1,2.7E1,7E0,3.5E1,2E0,1.4E1,9.1E1,4E0,7E0,8E0,1.8E1,6.4E1,4.5E1,4.1E1,1.4E1],"tree_param":{"num_deleted":"0","num_feature":"14","num_nodes":"29","size_leaf_vector":"1"}},{"base_weights":[-1.0217948E-1,-4.7430444E0,3.3789253E0,-8.188681E0,-2.2588267E0,1.4096802E0,7.272363E0,-1.0253849E1,-6.284217E0,-2.9053996E0,1.3624182E-1,5.91635E-1,4.0806394E0,5.5897336E0,1.1071893E1,-5.8089692E-2,-3.835083E-2,-9.771488E-3,-3.2327235E-2,-1.18955225E-2,-3.9518304E-2,2.0461258E-2,-4.8510944E-3,-1.0297117E-2,5.826956E-3,2.353866E-2,-3.117321E-3,2.3763636E-2,3.9319627E-2,3.2976206E-2,6.0002998E-2],"categories":[],"categories_nodes":[],"categories_segments":[],"categories_sizes":[],"default_left":[0,0,0,0,0,0,0,0,0,0,0,0,0,0,0,0,0,0,0,0,0,0,0,0,0,0,0,0,0,0,0],"id":32,"left_children":[1,3,5,7,9,11,13,15,17,19,21,23,25,27,29,-1,-1,-1,-1,-1,-1,-1,-1,-1,-1,-1,-1,-1,-1,-1,-1],"loss_changes":[6.332763E3,1.4195344E3,1.7071858E3,2.1087549E2,1.5370596E2,3.2533054E2,4.1760156E2,2.3668457E1,1.7968506E1,1.8637994E2,1.00268105E2,1.7884314E2,1.06181946E2,6.541455E1,1.2317871E1,0E0,0E0,0E0,0E0,0E0,0E0,0E0,0E0,0E0,0E0,0E0,0E0,0E0,0E0,0E0,0E0],"parents":[2147483647,0,0,1,1,2,2,3,3,4,4,5,5,6,6,7,7,8,8,9,9,10,10,11,11,12,12,13,13,14,14],"right_children":[2,4,6,8,10,12,14,16,18,20,22,24,26,28,30,-1,-1,-1,-1,-1,-1,-1,-1,-1,-1,-1,-1,-1,-1,-1,-1],"split_conditions":[1.8903177E1,1.5421883E1,2.458337E1,1.1932985E1,3.81E1,2.5095495E1,3.002412E1,5.61E1,5.17104E1,8.051E1,9.75E1,4.92E1,1.85E0,3.0754475E1,1.041E2,-5.8089692E-2,-3.835083E-2,-9.771488E-3,-3.2327235E-2,-1.18955225E-2,-3.9518304E-2,2.0461258E-2,-4.8510944E-3,-1.0297117E-2,5.826956E-3,2.353866E-2,-3.117321E-3,2.3763636E-2,3.9319627E-2,3.2976206E-2,6.0002998E-2],"split_indices":[12,12,12,12,4,13,12,8,2,2,5,8,3,13,7,0,0,0,0,0,0,0,0,0,0,0,0,0,0,0,0],"split_type":[0,0,0,0,0,0,0,0,0,0,0,0,0,0,0,0,0,0,0,0,0,0,0,0,0,0,0,0,0,0,0],"sum_hessian":[3.9E2,1.67E2,2.23E2,6.9E1,9.8E1,1.49E2,7.4E1,3.1E1,3.8E1,7.7E1,2.1E1,1.15E2,3.4E1,5.3E1,2.1E1,1.8E1,1.3E1,2E0,3.6E1,7.1E1,6E0,4E0,1.7E1,2E1,9.5E1,3E1,4E0,4.1E1,1.2E1,5E0,1.6E1],"tree_param":{"num_deleted":"0","num_feature":"14","num_nodes":"31","size_leaf_vector":"1"}},{"base_weights":[1.1567152E-2,-4.4005237E0,4.0205746E0,-8.001417E0,-1.8534677E0,1.7642035E0,7.6826973E0,-9.6778145E0,-6.334082E0,-5.158659E0,-1.3286581E0,-1.0288086E0,2.472349E0,5.837034E0,1.1669132E1,-1.4208545E-2,-4.8943847E-2,1.6733074E-3,-3.252448E-2,-6.7907427E-3,-2.9978039E-2,-8.036196E-3,1.0031432E-2,-1.2302503E-2,1.3395114E-2,1.3735568E-2,-8.637756E-3,3.140463E-2,1.5835186E-2,3.049623E-2,6.2390737E-2],"categories":[],"categories_nodes":[],"categories_segments":[],"categories_sizes":[],"default_left":[0,0,0,0,0,0,0,0,0,0,0,0,0,0,0,0,0,0,0,0,0,0,0,0,0,0,0,0,0,0,0],"id":33,"left_children":[1,3,5,7,9,11,13,15,17,19,21,23,25,27,29,-1,-1,-1,-1,-1,-1,-1,-1,-1,-1,-1,-1,-1,-1,-1,-1],"loss_changes":[7.022182E3,1.7186167E3,1.7051726E3,1.5671924E2,1.8742065E2,2.5966513E2,5.131387E2,2.4780273E-1,5.0019897E1,3.956958E1,9.427182E1,1.499205E2,1.24760254E2,4.6478638E1,3.203955E1,0E0,0E0,0E0,0E0,0E0,0E0,0E0,0E0,0E0,0E0,0E0,0E0,0E0,0E0,0E0,0E0],"parents":[2147483647,0,0,1,1,2,2,3,3,4,4,5,5,6,6,7,7,8,8,9,9,10,10,11,11,12,12,13,13,14,14],"right_children":[2,4,6,8,10,12,14,16,18,20,22,24,26,28,30,-1,-1,-1,-1,-1,-1,-1,-1,-1,-1,-1,-1,-1,-1,-1,-1],"split_conditions":[2.1569353E1,1.5826219E1,2.458337E1,1.1932985E1,8.91E1,1.8679152E1,3.073894E1,1.63322E0,5.17104E1,2.85E1,1.026E2,2.4548183E1,1.075E2,1.84E0,1.041E2,-1.4208545E-2,-4.8943847E-2,1.6733074E-3,-3.252448E-2,-6.7907427E-3,-2.9978039E-2,-8.036196E-3,1.0031432E-2,-1.2302503E-2,1.3395114E-2,1.3735568E-2,-8.637756E-3,3.140463E-2,1.5835186E-2,3.049623E-2,6.2390737E-2],"split_indices":[13,12,12,12,7,12,12,3,2,4,7,13,7,3,7,0,0,0,0,0,0,0,0,0,0,0,0,0,0,0,0],"split_type":[0,0,0,0,0,0,0,0,0,0,0,0,0,0,0,0,0,0,0,0,0,0,0,0,0,0,0,0,0,0,0],"sum_hessian":[3.95E2,1.88E2,2.07E2,7.7E1,1.11E2,1.29E2,7.8E1,3.6E1,4.1E1,1.4E1,9.7E1,2.6E1,1.03E2,5.5E1,2.3E1,1E0,3.5E1,1E0,4E1,3E0,1.1E1,9E1,7E0,1.9E1,7E0,9.7E1,6E0,4.6E1,9E0,4E0,1.9E1],"tree_param":{"num_deleted":"0","num_feature":"14","num_nodes":"31","size_leaf_vector":"1"}},{"base_weights":[-1.1567776E-1,-4.9224424E0,3.4846945E0,-8.335001E0,-2.2874494E0,2.0418243E0,9.243154E0,-1.0093234E1,-6.3574247E0,-4.4938927E0,-1.2629974E0,7.367829E-1,4.244043E0,6.584058E0,5.7031617E-2,-1.4173026E-2,-5.1064014E-2,-9.744493E-3,-3.2741033E-2,-1.4818321E-3,-2.744722E-2,1.5009788E-2,-7.858201E-3,-5.044584E-3,7.893009E-3,-6.7394427E-3,2.2155417E-2,3.3840276E-2,6.3402746E-3],"categories":[],"categories_nodes":[],"categories_segments":[],"categories_sizes":[],"default_left":[0,0,0,0,0,0,0,0,0,0,0,0,0,0,0,0,0,0,0,0,0,0,0,0,0,0,0,0,0],"id":34,"left_children":[1,3,5,7,9,11,13,15,17,19,21,23,25,27,-1,-1,-1,-1,-1,-1,-1,-1,-1,-1,-1,-1,-1,-1,-1],"loss_changes":[6.9915283E3,1.536562E3,1.9004392E3,1.9661133E2,2.181034E2,5.314345E2,1.894956E2,4.0307617E0,1.9198853E1,1.2791754E2,9.554596E1,1.7500113E2,7.814111E1,1.3914734E1,0E0,0E0,0E0,0E0,0E0,0E0,0E0,0E0,0E0,0E0,0E0,0E0,0E0,0E0,0E0],"parents":[2147483647,0,0,1,1,2,2,3,3,4,4,5,5,6,6,7,7,8,8,9,9,10,10,11,11,12,12,13,13],"right_children":[2,4,6,8,10,12,14,16,18,20,22,24,26,28,-1,-1,-1,-1,-1,-1,-1,-1,-1,-1,-1,-1,-1,-1,-1],"split_conditions":[1.8903177E1,1.5421883E1,2.7547604E1,1.1932985E1,1.8678926E1,2.3074348E1,3.073894E1,1.63322E0,4.81E1,1.43E1,1.872151E1,2.1500513E1,2.03023E1,1.85E0,5.7031617E-2,-1.4173026E-2,-5.1064014E-2,-9.744493E-3,-3.2741033E-2,-1.4818321E-3,-2.744722E-2,1.5009788E-2,-7.858201E-3,-5.044584E-3,7.893009E-3,-6.7394427E-3,2.2155417E-2,3.3840276E-2,6.3402746E-3],"split_indices":[12,12,12,12,13,12,12,3,8,10,13,11,11,3,0,0,0,0,0,0,0,0,0,0,0,0,0,0,0],"split_type":[0,0,0,0,0,0,0,0,0,0,0,0,0,0,0,0,0,0,0,0,0,0,0,0,0,0,0,0,0],"sum_hessian":[4.02E2,1.72E2,2.3E2,7.4E1,9.8E1,1.85E2,4.5E1,3.7E1,3.7E1,3E1,6.8E1,1.17E2,6.8E1,2.2E1,2.3E1,1E0,3.6E1,2E0,3.5E1,6E0,2.4E1,4E0,6.4E1,3.8E1,7.9E1,2E0,6.6E1,2.1E1,1E0],"tree_param":{"num_deleted":"0","num_feature":"14","num_nodes":"29","size_leaf_vector":"1"}},{"base_weights":[8.4330566E-2,-4.61025E0,3.6201432E0,-7.7453623E0,-2.041704E0,2.1937547E0,9.309015E0,-9.748426E0,-5.975985E0,-5.3697257E0,-1.5086923E0,-1.0439695E0,3.1746366E0,6.533913E0,5.900017E-2,-5.2678533E-2,-3.1517133E-2,-3.8015153E-2,-2.6016206E-2,-1.26739275E-2,-3.4123573E-2,-4.5881333E-4,-1.1399473E-2,-1.3695518E-2,6.239266E-4,1.0280375E-2,2.2063825E-2,8.551469E-3,3.3346374E-2],"categories":[],"categories_nodes":[],"categories_segments":[],"categories_sizes":[],"default_left":[0,0,0,0,0,0,0,0,0,0,0,0,0,0,0,0,0,0,0,0,0,0,0,0,0,0,0,0,0],"id":35,"left_children":[1,3,5,7,9,11,13,15,17,19,21,23,25,27,-1,-1,-1,-1,-1,-1,-1,-1,-1,-1,-1,-1,-1,-1,-1],"loss_changes":[6.7227495E3,1.3853523E3,1.8540378E3,2.1818945E2,1.6396454E2,5.940177E2,2.408899E2,2.851538E1,1.5760132E1,3.6323303E1,9.2673645E1,8.751443E1,1.8897095E2,4.263916E0,0E0,0E0,0E0,0E0,0E0,0E0,0E0,0E0,0E0,0E0,0E0,0E0,0E0,0E0,0E0],"parents":[2147483647,0,0,1,1,2,2,3,3,4,4,5,5,6,6,7,7,8,8,9,9,10,10,11,11,12,12,13,13],"right_children":[2,4,6,8,10,12,14,16,18,20,22,24,26,28,-1,-1,-1,-1,-1,-1,-1,-1,-1,-1,-1,-1,-1,-1,-1],"split_conditions":[1.8903177E1,1.5826219E1,2.7547604E1,1.1932985E1,8.91E1,2.1500513E1,3.073894E1,9.42E1,3.54E1,1.7383821E1,1.7145E0,2.0218775E1,2.3074348E1,8.75E1,5.900017E-2,-5.2678533E-2,-3.1517133E-2,-3.8015153E-2,-2.6016206E-2,-1.26739275E-2,-3.4123573E-2,-4.5881333E-4,-1.1399473E-2,-1.3695518E-2,6.239266E-4,1.0280375E-2,2.2063825E-2,8.551469E-3,3.3346374E-2],"split_indices":[12,12,12,12,7,11,12,5,9,12,3,11,12,5,0,0,0,0,0,0,0,0,0,0,0,0,0,0,0],"split_type":[0,0,0,0,0,0,0,0,0,0,0,0,0,0,0,0,0,0,0,0,0,0,0,0,0,0,0,0,0],"sum_hessian":[4.03E2,1.73E2,2.3E2,7.7E1,9.6E1,1.85E2,4.5E1,3.4E1,4.3E1,1.2E1,8.4E1,4.3E1,1.42E2,2.3E1,2.2E1,2.6E1,8E0,1.1E1,3.2E1,5E0,7E0,3E1,5.4E1,1.7E1,2.6E1,7.6E1,6.6E1,1E0,2.2E1],"tree_param":{"num_deleted":"0","num_feature":"14","num_nodes":"29","size_leaf_vector":"1"}},{"base_weights":[1.8384579E-1,-4.497202E0,3.617174E0,-7.345682E0,-1.6957937E0,1.7765068E0,7.859641E0,-4.7561355E-2,-5.9398346E0,-5.9279027E0,-1.1241459E0,-9.368831E-1,2.711389E0,5.9437985E0,1.1204188E1,-2.6204545E-2,-3.7562452E-2,-8.200299E-3,-3.397428E-2,-7.087459E-3,2.2918949E-2,-6.4144516E-3,1.99442E-2,1.4954657E-2,-7.880361E-3,3.2180708E-2,7.944101E-3,2.9910116E-2,5.97476E-2],"categories":[],"categories_nodes":[],"categories_segments":[],"categories_sizes":[],"default_left":[0,0,0,0,0,0,0,0,0,0,0,0,0,0,0,0,0,0,0,0,0,0,0,0,0,0,0,0,0],"id":36,"left_children":[1,3,5,7,9,11,13,-1,15,17,19,21,23,25,27,-1,-1,-1,-1,-1,-1,-1,-1,-1,-1,-1,-1,-1,-1],"loss_changes":[6.38061E3,1.3281421E3,1.7742917E3,1.963081E2,2.0139392E2,4.109489E2,3.7553027E2,0E0,1.8883667E1,2.6029633E1,1.3542627E2,7.669934E1,1.485373E2,8.840466E1,2.1931885E1,0E0,0E0,0E0,0E0,0E0,0E0,0E0,0E0,0E0,0E0,0E0,0E0,0E0,0E0],"parents":[2147483647,0,0,1,1,2,2,3,3,4,4,5,5,6,6,8,8,9,9,10,10,11,11,12,12,13,13,14,14],"right_children":[2,4,6,8,10,12,14,-1,16,18,20,22,24,26,28,-1,-1,-1,-1,-1,-1,-1,-1,-1,-1,-1,-1,-1,-1],"split_conditions":[1.8940504E1,1.6312857E1,2.552214E1,1.1932985E1,8.91E1,2.1500513E1,3.073894E1,-4.7561355E-2,5.89E1,1.7383821E1,5.6E1,5.53E1,9.412E1,1.85E0,1.041E2,-2.6204545E-2,-3.7562452E-2,-8.200299E-3,-3.397428E-2,-7.087459E-3,2.2918949E-2,-6.4144516E-3,1.99442E-2,1.4954657E-2,-7.880361E-3,3.2180708E-2,7.944101E-3,2.9910116E-2,5.97476E-2],"split_indices":[12,12,12,12,7,11,12,0,8,12,1,8,2,3,7,0,0,0,0,0,0,0,0,0,0,0,0,0,0],"split_type":[0,0,0,0,0,0,0,0,0,0,0,0,0,0,0,0,0,0,0,0,0,0,0,0,0,0,0,0,0],"sum_hessian":[3.95E2,1.67E2,2.28E2,8.2E1,8.5E1,1.6E2,6.8E1,3E1,5.2E1,9E0,7.6E1,4.1E1,1.19E2,4.5E1,2.3E1,3.9E1,1.3E1,2E0,7E0,7.3E1,3E0,3.9E1,2E0,1.12E2,7E0,4E1,5E0,4E0,1.9E1],"tree_param":{"num_deleted":"0","num_feature":"14","num_nodes":"29","size_leaf_vector":"1"}},{"base_weights":[-2.8431648E-2,-4.2692184E0,3.8893828E0,-9.280165E0,-2.907413E0,2.6018028E0,8.552691E0,-1.09417305E1,-7.647317E0,-1.6364644E0,-4.5333247E0,4.15577E0,1.0353618E0,4.6407027E0,9.681844E0,-3.2169644E-2,-6.090291E-2,-2.1010514E-2,-4.7171526E-2,-2.295122E-2,-4.0567303E-3,-3.345301E-2,-1.6649876E-2,1.1467896E-2,3.0989463E-2,-6.9407825E-3,1.3153697E-2,-5.3700637E-3,2.6289297E-2,4.068789E-2,6.085492E-2],"categories":[],"categories_nodes":[],"categories_segments":[],"categories_sizes":[],"default_left":[0,0,0,0,0,0,0,0,0,0,0,0,0,0,0,0,0,0,0,0,0,0,0,0,0,0,0,0,0,0,0],"id":37,"left_children":[1,3,5,7,9,11,13,15,17,19,21,23,25,27,29,-1,-1,-1,-1,-1,-1,-1,-1,-1,-1,-1,-1,-1,-1,-1,-1],"loss_changes":[6.7122944E3,1.296862E3,1.2386682E3,2.7561768E1,3.108147E2,3.9977405E2,1.5384497E2,2.2151855E1,1.081134E2,2.1075089E2,1.5164978E2,3.0141882E2,3.2843176E2,4.7969543E1,3.1649902E1,0E0,0E0,0E0,0E0,0E0,0E0,0E0,0E0,0E0,0E0,0E0,0E0,0E0,0E0,0E0,0E0],"parents":[2147483647,0,0,1,1,2,2,3,3,4,4,5,5,6,6,7,7,8,8,9,9,10,10,11,11,12,12,13,13,14,14],"right_children":[2,4,6,8,10,12,14,16,18,20,22,24,26,28,30,-1,-1,-1,-1,-1,-1,-1,-1,-1,-1,-1,-1,-1,-1,-1,-1],"split_conditions":[2.1569353E1,1.5761128E1,2.9068151E1,5.3E1,3.44E1,2.6E1,2.832237E1,3.35E1,3.66E1,8.96E1,8.53E1,2.3395025E1,2.4583735E1,9.58E1,1.131E2,-3.2169644E-2,-6.090291E-2,-2.1010514E-2,-4.7171526E-2,-2.295122E-2,-4.0567303E-3,-3.345301E-2,-1.6649876E-2,1.1467896E-2,3.0989463E-2,-6.9407825E-3,1.3153697E-2,-5.3700637E-3,2.6289297E-2,4.068789E-2,6.085492E-2],"split_indices":[13,13,13,8,4,1,11,4,9,7,6,11,13,6,6,0,0,0,0,0,0,0,0,0,0,0,0,0,0,0,0],"split_type":[0,0,0,0,0,0,0,0,0,0,0,0,0,0,0,0,0,0,0,0,0,0,0,0,0,0,0,0,0,0,0],"sum_hessian":[4.02E2,1.93E2,2.09E2,4E1,1.53E2,1.65E2,4.4E1,1.7E1,2.3E1,8.7E1,6.6E1,8.2E1,8.3E1,1.1E1,3.3E1,5E0,1.2E1,9E0,1.4E1,1.8E1,6.9E1,2.2E1,4.4E1,4.4E1,3.8E1,3.3E1,5E1,1E0,1E1,2.3E1,1E1],"tree_param":{"num_deleted":"0","num_feature":"14","num_nodes":"31","size_leaf_vector":"1"}},{"base_weights":[-3.6914684E-2,-4.0280957E0,3.8734145E0,-7.472018E0,-1.77584E0,2.3890018E0,8.980827E0,-4.9460802E-2,-6.0157003E0,-5.0300937E0,-1.2160542E0,-1.2514361E0,3.243595E0,6.4874883E0,1.117928E1,-3.0490398E-2,-4.9478053E-3,-6.5103434E-3,-2.8679755E-2,-7.575221E-3,1.0209233E-2,-1.2772526E-3,-2.2437336E-2,1.2312478E-2,2.3127805E-2,3.4652524E-2,1.3252663E-2,2.9651817E-2,6.0081203E-2],"categories":[],"categories_nodes":[],"categories_segments":[],"categories_sizes":[],"default_left":[0,0,0,0,0,0,0,0,0,0,0,0,0,0,0,0,0,0,0,0,0,0,0,0,0,0,0,0,0],"id":38,"left_children":[1,3,5,7,9,11,13,-1,15,17,19,21,23,25,27,-1,-1,-1,-1,-1,-1,-1,-1,-1,-1,-1,-1,-1,-1],"loss_changes":[6.0866597E3,1.4837542E3,1.4721018E3,2.0835254E2,2.0884192E2,4.8316754E2,1.6865991E2,0E0,1.4668091E1,3.7266113E1,1.024496E2,9.554489E1,1.2354114E2,2.0726685E1,2.5388428E1,0E0,0E0,0E0,0E0,0E0,0E0,0E0,0E0,0E0,0E0,0E0,0E0,0E0,0E0],"parents":[2147483647,0,0,1,1,2,2,3,3,4,4,5,5,6,6,8,8,9,9,10,10,11,11,12,12,13,13,14,14],"right_children":[2,4,6,8,10,12,14,-1,16,18,20,22,24,26,28,-1,-1,-1,-1,-1,-1,-1,-1,-1,-1,-1,-1,-1,-1],"split_conditions":[2.1569353E1,1.5826219E1,2.7547604E1,1.0977721E1,8.95E1,1.8679152E1,3.073894E1,-4.9460802E-2,4E1,2.85E1,1.026E2,5.1E1,2.3643028E1,1.84E0,1.041E2,-3.0490398E-2,-4.9478053E-3,-6.5103434E-3,-2.8679755E-2,-7.575221E-3,1.0209233E-2,-1.2772526E-3,-2.2437336E-2,1.2312478E-2,2.3127805E-2,3.4652524E-2,1.3252663E-2,2.9651817E-2,6.0081203E-2],"split_indices":[13,12,12,12,7,12,12,0,9,4,7,1,12,3,7,0,0,0,0,0,0,0,0,0,0,0,0,0,0],"split_type":[0,0,0,0,0,0,0,0,0,0,0,0,0,0,0,0,0,0,0,0,0,0,0,0,0,0,0,0,0],"sum_hessian":[3.88E2,1.92E2,1.96E2,7.5E1,1.17E2,1.53E2,4.3E1,2.6E1,4.9E1,1.6E1,1.01E2,2.9E1,1.24E2,2.2E1,2.1E1,4.8E1,1E0,3E0,1.3E1,9.3E1,8E0,2.3E1,6E0,8.1E1,4.3E1,1.9E1,3E0,4E0,1.7E1],"tree_param":{"num_deleted":"0","num_feature":"14","num_nodes":"29","size_leaf_vector":"1"}},{"base_weights":[1.1712991E-1,-4.155888E0,3.8880699E0,-7.9149094E0,-1.9097756E0,1.4025795E0,6.9026513E0,-9.7950945E0,-5.973255E0,-1.4931769E0,-4.9276104E0,-1.1495143E0,2.1363182E0,5.356592E0,1.13176365E1,-1.373034E-2,-4.962743E-2,-3.0421702E-2,-4.935436E-3,-2.187126E-2,-4.661915E-3,-3.1146254E-2,9.607439E-3,5.7322864E-5,-2.2341175E-2,1.2192269E-2,-9.404105E-3,1.5242782E-2,2.9262954E-2,2.9533211E-2,6.0522515E-2],"categories":[],"categories_nodes":[],"categories_segments":[],"categories_sizes":[],"default_left":[0,0,0,0,0,0,0,0,0,0,0,0,0,0,0,0,0,0,0,0,0,0,0,0,0,0,0,0,0,0,0],"id":39,"left_children":[1,3,5,7,9,11,13,15,17,19,21,23,25,27,29,-1,-1,-1,-1,-1,-1,-1,-1,-1,-1,-1,-1,-1,-1,-1,-1],"loss_changes":[6.461476E3,1.5722031E3,1.5862661E3,1.9703857E2,1.422521E2,2.2341902E2,5.9465576E2,3.9943848E0,1.4488159E1,1.671846E2,1.3678033E2,1.0408127E2,1.16248535E2,6.5727295E1,3.0688477E1,0E0,0E0,0E0,0E0,0E0,0E0,0E0,0E0,0E0,0E0,0E0,0E0,0E0,0E0,0E0,0E0],"parents":[2147483647,0,0,1,1,2,2,3,3,4,4,5,5,6,6,7,7,8,8,9,9,10,10,11,11,12,12,13,13,14,14],"right_children":[2,4,6,8,10,12,14,16,18,20,22,24,26,28,30,-1,-1,-1,-1,-1,-1,-1,-1,-1,-1,-1,-1,-1,-1,-1,-1],"split_conditions":[2.1569353E1,1.5421883E1,2.3643028E1,1.1932985E1,9.85E1,1.8679152E1,3.073894E1,1.63322E0,1.037E2,8.95E1,8.925E1,5.1E1,9.412E1,2.3657894E1,1.041E2,-1.373034E-2,-4.962743E-2,-3.0421702E-2,-4.935436E-3,-2.187126E-2,-4.661915E-3,-3.1146254E-2,9.607439E-3,5.7322864E-5,-2.2341175E-2,1.2192269E-2,-9.404105E-3,1.5242782E-2,2.9262954E-2,2.9533211E-2,6.0522515E-2],"split_indices":[13,12,12,12,5,12,12,3,5,7,2,1,2,13,7,0,0,0,0,0,0,0,0,0,0,0,0,0,0,0,0],"split_type":[0,0,0,0,0,0,0,0,0,0,0,0,0,0,0,0,0,0,0,0,0,0,0,0,0,0,0,0,0,0,0],"sum_hessian":[3.99E2,1.87E2,2.12E2,6.9E1,1.18E2,1.17E2,9.5E1,3.3E1,3.6E1,1.05E2,1.3E1,2.6E1,9.1E1,7.2E1,2.3E1,1E0,3.2E1,3.5E1,1E0,1.6E1,8.9E1,1.1E1,2E0,2E1,6E0,8.5E1,6E0,1.4E1,5.8E1,4E0,1.9E1],"tree_param":{"num_deleted":"0","num_feature":"14","num_nodes":"31","size_leaf_vector":"1"}},{"base_weights":[-3.3727646E-2,-4.61587E0,3.31015E0,-7.919935E0,-2.202267E0,1.3059266E0,7.2210155E0,-9.719481E0,-5.716796E0,-2.7859466E0,4.493597E-1,-1.3100245E0,2.2539275E0,5.35418E0,1.0533352E1,-5.1754925E-2,-3.1076713E-2,-1.4870872E-2,-3.237734E-2,-1.2052367E-2,-3.4449395E-2,2.2103857E-2,-3.1982039E-3,-1.4655443E-2,-1.100712E-3,1.5750716E-2,4.025408E-3,1.0356247E-2,2.9202208E-2,3.2495633E-2,5.7093315E-2],"categories":[],"categories_nodes":[],"categories_segments":[],"categories_sizes":[],"default_left":[0,0,0,0,0,0,0,0,0,0,0,0,0,0,0,0,0,0,0,0,0,0,0,0,0,0,0,0,0,0,0],"id":40,"left_children":[1,3,5,7,9,11,13,15,17,19,21,23,25,27,29,-1,-1,-1,-1,-1,-1,-1,-1,-1,-1,-1,-1,-1,-1,-1,-1],"loss_changes":[5.8836523E3,1.2744595E3,1.7306609E3,2.1403223E2,1.4828345E2,3.699815E2,4.0737207E2,1.5328857E1,4.940564E1,1.0358356E2,8.067536E1,7.00255E1,1.3899799E2,6.772119E1,1.8648438E1,0E0,0E0,0E0,0E0,0E0,0E0,0E0,0E0,0E0,0E0,0E0,0E0,0E0,0E0,0E0,0E0],"parents":[2147483647,0,0,1,1,2,2,3,3,4,4,5,5,6,6,7,7,8,8,9,9,10,10,11,11,12,12,13,13,14,14],"right_children":[2,4,6,8,10,12,14,16,18,20,22,24,26,28,30,-1,-1,-1,-1,-1,-1,-1,-1,-1,-1,-1,-1,-1,-1,-1,-1],"split_conditions":[1.8903177E1,1.5421883E1,2.458337E1,1.1932985E1,3.81E1,2.1500513E1,2.8846375E1,9.42E1,9.22E1,8.051E1,9.73E1,4.92E1,1.7526E0,2.3178009E1,1.043E2,-5.1754925E-2,-3.1076713E-2,-1.4870872E-2,-3.237734E-2,-1.2052367E-2,-3.4449395E-2,2.2103857E-2,-3.1982039E-3,-1.4655443E-2,-1.100712E-3,1.5750716E-2,4.025408E-3,1.0356247E-2,2.9202208E-2,3.2495633E-2,5.7093315E-2],"split_indices":[12,12,12,12,4,11,12,5,5,2,5,8,3,11,7,0,0,0,0,0,0,0,0,0,0,0,0,0,0,0,0],"split_type":[0,0,0,0,0,0,0,0,0,0,0,0,0,0,0,0,0,0,0,0,0,0,0,0,0,0,0,0,0,0,0],"sum_hessian":[3.82E2,1.61E2,2.21E2,6.7E1,9.4E1,1.47E2,7.4E1,3.5E1,3.2E1,7.7E1,1.7E1,3.9E1,1.08E2,4.9E1,2.5E1,2.8E1,7E0,8E0,2.4E1,7.2E1,5E0,3E0,1.4E1,1.5E1,2.4E1,6.6E1,4.2E1,7E0,4.2E1,6E0,1.9E1],"tree_param":{"num_deleted":"0","num_feature":"14","num_nodes":"31","size_leaf_vector":"1"}},{"base_weights":[-9.005808E-2,-4.712211E0,3.422364E0,-7.9191265E0,-2.259902E0,9.8536587E-1,6.6125093E0,-9.595866E0,-6.033989E0,-3.9370437E0,-1.3362678E0,-2.234426E0,1.6557314E0,5.245696E0,5.1241715E-2,-1.3566627E-2,-4.8542738E-2,-9.204948E-3,-3.1078972E-2,-1.4474189E-2,-3.8461592E-2,1.5086801E-2,-8.32907E-3,-1.4282501E-2,2.8817062E-3,9.759318E-3,-5.7998984E-3,1.4110059E-2,2.8820943E-2],"categories":[],"categories_nodes":[],"categories_segments":[],"categories_sizes":[],"default_left":[0,0,0,0,0,0,0,0,0,0,0,0,0,0,0,0,0,0,0,0,0,0,0,0,0,0,0,0,0],"id":41,"left_children":[1,3,5,7,9,11,13,15,17,19,21,23,25,27,-1,-1,-1,-1,-1,-1,-1,-1,-1,-1,-1,-1,-1,-1,-1],"loss_changes":[6.5425776E3,1.3505002E3,1.7738169E3,1.7916504E2,1.496456E2,2.8645496E2,4.382212E2,3.1279297E0,1.7524658E1,1.1471393E2,9.9718025E1,4.1861946E1,9.315082E1,7.672644E1,0E0,0E0,0E0,0E0,0E0,0E0,0E0,0E0,0E0,0E0,0E0,0E0,0E0,0E0,0E0],"parents":[2147483647,0,0,1,1,2,2,3,3,4,4,5,5,6,6,7,7,8,8,9,9,10,10,11,11,12,12,13,13],"right_children":[2,4,6,8,10,12,14,16,18,20,22,24,26,28,-1,-1,-1,-1,-1,-1,-1,-1,-1,-1,-1,-1,-1,-1,-1],"split_conditions":[1.8903177E1,1.5421883E1,2.3643028E1,1.1932985E1,1.8678926E1,2.0548613E1,3.002412E1,3.34E1,5.17104E1,9.23E1,1.872151E1,9.86E1,9.049E1,2.3657894E1,5.1241715E-2,-1.3566627E-2,-4.8542738E-2,-9.204948E-3,-3.1078972E-2,-1.4474189E-2,-3.8461592E-2,1.5086801E-2,-8.32907E-3,-1.4282501E-2,2.8817062E-3,9.759318E-3,-5.7998984E-3,1.4110059E-2,2.8820943E-2],"split_indices":[12,12,12,12,13,11,12,4,2,5,13,7,2,13,0,0,0,0,0,0,0,0,0,0,0,0,0,0,0],"split_type":[0,0,0,0,0,0,0,0,0,0,0,0,0,0,0,0,0,0,0,0,0,0,0,0,0,0,0,0,0],"sum_hessian":[4.01E2,1.73E2,2.28E2,7.4E1,9.9E1,1.3E2,9.8E1,3.7E1,3.7E1,3.4E1,6.5E1,2.2E1,1.08E2,7.3E1,2.5E1,1E0,3.6E1,2E0,3.5E1,2.8E1,6E0,4E0,6.1E1,1.8E1,4E0,9.8E1,1E1,1.4E1,5.9E1],"tree_param":{"num_deleted":"0","num_feature":"14","num_nodes":"29","size_leaf_vector":"1"}},{"base_weights":[-4.22584E-2,-4.4846263E0,3.3444896E0,-8.012204E0,-2.0543566E0,1.4382117E0,7.1633706E0,-9.572743E0,-6.124215E0,-3.5645297E0,-1.2804401E0,-1.1076448E0,2.1657407E0,5.510669E0,5.091119E-2,-5.1274087E-2,-3.1935483E-2,-2.8073438E-3,-3.2271706E-2,-1.34402495E-2,-4.055251E-2,-9.750073E-3,2.2875906E-3,-2.1751858E-2,-1.992706E-3,6.891095E-3,1.7204938E-2,2.2651326E-2,3.8540583E-2],"categories":[],"categories_nodes":[],"categories_segments":[],"categories_sizes":[],"default_left":[0,0,0,0,0,0,0,0,0,0,0,0,0,0,0,0,0,0,0,0,0,0,0,0,0,0,0,0,0],"id":42,"left_children":[1,3,5,7,9,11,13,15,17,19,21,23,25,27,-1,-1,-1,-1,-1,-1,-1,-1,-1,-1,-1,-1,-1,-1,-1],"loss_changes":[5.9127095E3,1.4409446E3,1.6131038E3,1.4466748E2,1.146481E2,2.802266E2,3.1309595E2,1.2723877E1,5.8813965E1,1.1367001E2,8.118696E1,7.64468E1,1.1275885E2,7.279944E1,0E0,0E0,0E0,0E0,0E0,0E0,0E0,0E0,0E0,0E0,0E0,0E0,0E0,0E0,0E0],"parents":[2147483647,0,0,1,1,2,2,3,3,4,4,5,5,6,6,7,7,8,8,9,9,10,10,11,11,12,12,13,13],"right_children":[2,4,6,8,10,12,14,16,18,20,22,24,26,28,-1,-1,-1,-1,-1,-1,-1,-1,-1,-1,-1,-1,-1,-1,-1],"split_conditions":[2.0920813E1,1.5421883E1,2.458337E1,1.1932985E1,1.8678926E1,1.8679152E1,3.002412E1,9.42E1,1.2838781E1,1.72E1,9.8E1,1.6251781E1,2.4583735E1,3.0754475E1,5.091119E-2,-5.1274087E-2,-3.1935483E-2,-2.8073438E-3,-3.2271706E-2,-1.34402495E-2,-4.055251E-2,-9.750073E-3,2.2875906E-3,-2.1751858E-2,-1.992706E-3,6.891095E-3,1.7204938E-2,2.2651326E-2,3.8540583E-2],"split_indices":[13,12,12,12,13,12,12,5,12,10,7,12,13,13,0,0,0,0,0,0,0,0,0,0,0,0,0,0,0],"split_type":[0,0,0,0,0,0,0,0,0,0,0,0,0,0,0,0,0,0,0,0,0,0,0,0,0,0,0,0,0],"sum_hessian":[3.91E2,1.69E2,2.22E2,6.8E1,1.01E2,1.49E2,7.3E1,3.5E1,3.3E1,3.3E1,6.8E1,3.3E1,1.16E2,4.9E1,2.4E1,2.7E1,8E0,2E0,3.1E1,2.9E1,4E0,4.9E1,1.9E1,5E0,2.8E1,7.3E1,4.3E1,3.6E1,1.3E1],"tree_param":{"num_deleted":"0","num_feature":"14","num_nodes":"29","size_leaf_vector":"1"}},{"base_weights":[5.5049505E-2,-3.9315822E0,3.7651076E0,-6.9595556E0,-1.2544216E0,2.2882898E0,8.586778E0,-9.218885E0,-5.2936044E0,-5.3644757E0,-7.43817E-1,-9.1963366E-2,3.2845042E0,6.4434767E0,1.0729462E1,-4.9580622E-2,-3.0126886E-2,-2.2833126E-2,-3.8270973E-2,-1.0091894E-2,-3.1834822E-2,-4.7185556E-3,1.9199034E-2,-6.6835266E-3,9.06373E-3,1.19184805E-2,2.2663502E-2,3.420815E-2,1.2716124E-2,2.8876489E-2,5.754768E-2],"categories":[],"categories_nodes":[],"categories_segments":[],"categories_sizes":[],"default_left":[0,0,0,0,0,0,0,0,0,0,0,0,0,0,0,0,0,0,0,0,0,0,0,0,0,0,0,0,0,0,0],"id":43,"left_children":[1,3,5,7,9,11,13,15,17,19,21,23,25,27,29,-1,-1,-1,-1,-1,-1,-1,-1,-1,-1,-1,-1,-1,-1,-1,-1],"loss_changes":[5.7683604E3,1.5152678E3,1.4187383E3,2.824248E2,2.0796968E2,3.7021588E2,1.4670825E2,2.0410645E1,5.599951E1,2.404773E1,8.700145E1,1.1385408E2,1.1287781E2,2.2975464E1,1.8550537E1,0E0,0E0,0E0,0E0,0E0,0E0,0E0,0E0,0E0,0E0,0E0,0E0,0E0,0E0,0E0,0E0],"parents":[2147483647,0,0,1,1,2,2,3,3,4,4,5,5,6,6,7,7,8,8,9,9,10,10,11,11,12,12,13,13,14,14],"right_children":[2,4,6,8,10,12,14,16,18,20,22,24,26,28,30,-1,-1,-1,-1,-1,-1,-1,-1,-1,-1,-1,-1,-1,-1,-1,-1],"split_conditions":[2.1569353E1,1.6312857E1,2.7547604E1,1.1932985E1,8.91E1,1.9999193E1,3.073894E1,9.42E1,5.89E1,8.66E1,5.5E1,2.3968027E1,2.3643028E1,1.84E0,1.041E2,-4.9580622E-2,-3.0126886E-2,-2.2833126E-2,-3.8270973E-2,-1.0091894E-2,-3.1834822E-2,-4.7185556E-3,1.9199034E-2,-6.6835266E-3,9.06373E-3,1.19184805E-2,2.2663502E-2,3.420815E-2,1.2716124E-2,2.8876489E-2,5.754768E-2],"split_indices":[13,12,12,12,7,12,12,5,8,7,1,13,12,3,7,0,0,0,0,0,0,0,0,0,0,0,0,0,0,0,0],"split_type":[0,0,0,0,0,0,0,0,0,0,0,0,0,0,0,0,0,0,0,0,0,0,0,0,0,0,0,0,0,0,0],"sum_hessian":[3.88E2,1.87E2,2.01E2,8.7E1,1E2,1.55E2,4.6E1,3.5E1,5.2E1,1E1,9E1,4.6E1,1.09E2,2.5E1,2.1E1,2.7E1,8E0,4.2E1,1E1,3E0,7E0,8.7E1,3E0,2.8E1,1.8E1,6.5E1,4.4E1,2.2E1,3E0,4E0,1.7E1],"tree_param":{"num_deleted":"0","num_feature":"14","num_nodes":"31","size_leaf_vector":"1"}},{"base_weights":[-1.657126E-2,-4.3440866E0,3.415012E0,-7.650058E0,-1.8546265E0,2.0951958E0,8.425048E0,-9.4300165E0,-5.5751E0,-2.0905259E0,2.282744E-2,9.263266E-1,3.893073E0,6.244608E0,1.0254443E1,-1.3280572E-2,-4.7678E-2,-2.0890076E-2,-3.2006256E-2,-1.23158945E-2,4.3929066E-3,-1.1269765E-2,7.2336197E-3,3.9099795E-3,2.1105641E-2,3.2730244E-2,9.762506E-3,2.876098E-2,5.4336414E-2],"categories":[],"categories_nodes":[],"categories_segments":[],"categories_sizes":[],"default_left":[0,0,0,0,0,0,0,0,0,0,0,0,0,0,0,0,0,0,0,0,0,0,0,0,0,0,0,0,0],"id":44,"left_children":[1,3,5,7,9,11,13,15,17,19,-1,21,23,25,27,-1,-1,-1,-1,-1,-1,-1,-1,-1,-1,-1,-1,-1,-1],"loss_changes":[6.0440283E3,1.4672268E3,1.4833457E3,2.3181396E2,1.6705237E2,3.7676227E2,1.2344287E2,3.2810059E0,1.7115234E1,1.1391519E2,0E0,1.8696686E2,6.916199E1,1.8270447E1,3.7087402E0,0E0,0E0,0E0,0E0,0E0,0E0,0E0,0E0,0E0,0E0,0E0,0E0,0E0,0E0],"parents":[2147483647,0,0,1,1,2,2,3,3,4,4,5,5,6,6,7,7,8,8,9,9,11,11,12,12,13,13,14,14],"right_children":[2,4,6,8,10,12,14,16,18,20,-1,22,24,26,28,-1,-1,-1,-1,-1,-1,-1,-1,-1,-1,-1,-1,-1,-1],"split_conditions":[1.8963772E1,1.5421883E1,2.7547604E1,1.1932985E1,6E1,2.3074348E1,3.073894E1,1.63322E0,9.31E1,6.09E1,2.282744E-2,4.92E1,3.46E1,1.84E0,1.041E2,-1.3280572E-2,-4.7678E-2,-2.0890076E-2,-3.2006256E-2,-1.23158945E-2,4.3929066E-3,-1.1269765E-2,7.2336197E-3,3.9099795E-3,2.1105641E-2,3.2730244E-2,9.762506E-3,2.876098E-2,5.4336414E-2],"split_indices":[12,12,12,12,1,12,12,3,5,8,0,8,9,3,7,0,0,0,0,0,0,0,0,0,0,0,0,0,0],"split_type":[0,0,0,0,0,0,0,0,0,0,0,0,0,0,0,0,0,0,0,0,0,0,0,0,0,0,0,0,0],"sum_hessian":[4.05E2,1.79E2,2.26E2,7.6E1,1.03E2,1.8E2,4.6E1,3.9E1,3.7E1,1E2,3E0,1.1E2,7E1,2.3E1,2.3E1,1E0,3.8E1,1.6E1,2.1E1,8.9E1,1.1E1,1.5E1,9.5E1,7E0,6.3E1,2.1E1,2E0,4E0,1.9E1],"tree_param":{"num_deleted":"0","num_feature":"14","num_nodes":"29","size_leaf_vector":"1"}},{"base_weights":[-1.47031825E-2,-4.132724E0,3.7418067E0,-8.997275E0,-2.7900562E0,2.5897393E0,8.286912E0,-4.7609974E-2,-6.1319113E0,-1.495703E0,-4.5126643E0,4.0899763E0,9.8344463E-1,1.0509205E0,8.830519E0,-9.832509E-3,-3.52055E-2,-2.1645023E-2,-3.931241E-3,-4.2676907E-2,-1.7963082E-2,1.04292855E-2,3.146232E-2,-6.51792E-3,1.2518091E-2,-5.5725714E-3,1.0721183E-2,3.313464E-2,5.0659526E-2],"categories":[],"categories_nodes":[],"categories_segments":[],"categories_sizes":[],"default_left":[0,0,0,0,0,0,0,0,0,0,0,0,0,0,0,0,0,0,0,0,0,0,0,0,0,0,0,0,0],"id":45,"left_children":[1,3,5,7,9,11,13,-1,15,17,19,21,23,25,27,-1,-1,-1,-1,-1,-1,-1,-1,-1,-1,-1,-1,-1,-1],"loss_changes":[6.0639937E3,1.1962832E3,1.0519739E3,1.7524414E0,3.2324048E2,3.935984E2,1.5199463E2,0E0,2.0237946E1,1.6946483E2,2.0250452E2,3.6206885E2,2.848748E2,1.1859802E1,4.183008E1,0E0,0E0,0E0,0E0,0E0,0E0,0E0,0E0,0E0,0E0,0E0,0E0,0E0,0E0],"parents":[2147483647,0,0,1,1,2,2,3,3,4,4,5,5,6,6,8,8,9,9,10,10,11,11,12,12,13,13,14,14],"right_children":[2,4,6,8,10,12,14,-1,16,18,20,22,24,26,28,-1,-1,-1,-1,-1,-1,-1,-1,-1,-1,-1,-1,-1,-1],"split_conditions":[2.1569353E1,1.5761128E1,2.9068151E1,1.52847E1,3.44E1,2.6E1,5.73E1,-4.7609974E-2,7.82E1,8.95E1,9.32E1,2.3395025E1,2.4583735E1,7.66584E1,1.06E2,-9.832509E-3,-3.52055E-2,-2.1645023E-2,-3.931241E-3,-4.2676907E-2,-1.7963082E-2,1.04292855E-2,3.146232E-2,-6.51792E-3,1.2518091E-2,-5.5725714E-3,1.0721183E-2,3.313464E-2,5.0659526E-2],"split_indices":[13,13,13,13,4,1,8,0,6,7,7,11,13,2,7,0,0,0,0,0,0,0,0,0,0,0,0,0,0],"split_type":[0,0,0,0,0,0,0,0,0,0,0,0,0,0,0,0,0,0,0,0,0,0,0,0,0,0,0,0,0],"sum_hessian":[3.9E2,1.86E2,2.04E2,3.9E1,1.47E2,1.64E2,4E1,3.1E1,8E0,8.5E1,6.2E1,8.4E1,8E1,3E0,3.7E1,2E0,6E0,1.6E1,6.9E1,1E1,5.2E1,4.5E1,3.9E1,3.2E1,4.8E1,1E0,2E0,1.6E1,2.1E1],"tree_param":{"num_deleted":"0","num_feature":"14","num_nodes":"29","size_leaf_vector":"1"}},{"base_weights":[-7.473561E-2,-4.4218464E0,3.4576511E0,-7.706975E0,-1.9631612E0,1.6532842E0,7.314724E0,-9.346823E0,-5.9031515E0,-6.1029143E0,-1.4759624E0,7.201174E-1,4.038186E0,5.5420995E0,1.0185896E1,-5.6473255E-2,-3.877402E-2,-2.0631596E-2,-3.5302185E-2,-4.748449E-3,-3.2849867E-2,-2.0611951E-2,-4.84521E-3,-1.4244925E-2,5.8645178E-3,2.8990222E-2,9.942126E-3,3.0667223E-2,8.123446E-3,4.120609E-2,6.255667E-2],"categories":[],"categories_nodes":[],"categories_segments":[],"categories_sizes":[],"default_left":[0,0,0,0,0,0,0,0,0,0,0,0,0,0,0,0,0,0,0,0,0,0,0,0,0,0,0,0,0,0,0],"id":46,"left_children":[1,3,5,7,9,11,13,15,17,19,21,23,25,27,29,-1,-1,-1,-1,-1,-1,-1,-1,-1,-1,-1,-1,-1,-1,-1,-1],"loss_changes":[5.7890234E3,1.3498997E3,1.435498E3,1.577998E2,1.8864685E2,3.1534012E2,2.7945654E2,2.4047607E1,4.6949585E1,1.7829193E1,1.1540126E2,1.7140976E2,1.3276263E2,8.964624E1,5.4248047E0,0E0,0E0,0E0,0E0,0E0,0E0,0E0,0E0,0E0,0E0,0E0,0E0,0E0,0E0,0E0,0E0],"parents":[2147483647,0,0,1,1,2,2,3,3,4,4,5,5,6,6,7,7,8,8,9,9,10,10,11,11,12,12,13,13,14,14],"right_children":[2,4,6,8,10,12,14,16,18,20,22,24,26,28,30,-1,-1,-1,-1,-1,-1,-1,-1,-1,-1,-1,-1,-1,-1,-1,-1],"split_conditions":[1.9271523E1,1.5421883E1,2.552214E1,1.1932985E1,8.91E1,2.5095495E1,3.002412E1,5.28E1,9.31E1,2.8E1,1.6312857E1,2.0218775E1,1.031E2,1.85E0,3.647388E1,-5.6473255E-2,-3.877402E-2,-2.0631596E-2,-3.5302185E-2,-4.748449E-3,-3.2849867E-2,-2.0611951E-2,-4.84521E-3,-1.4244925E-2,5.8645178E-3,2.8990222E-2,9.942126E-3,3.0667223E-2,8.123446E-3,4.120609E-2,6.255667E-2],"split_indices":[12,12,12,12,7,13,12,8,5,4,12,11,5,3,12,0,0,0,0,0,0,0,0,0,0,0,0,0,0,0,0],"split_type":[0,0,0,0,0,0,0,0,0,0,0,0,0,0,0,0,0,0,0,0,0,0,0,0,0,0,0,0,0,0,0],"sum_hessian":[3.75E2,1.68E2,2.07E2,7.1E1,9.7E1,1.42E2,6.5E1,3.5E1,3.6E1,9E0,8.8E1,1.03E2,3.9E1,4.2E1,2.3E1,1.3E1,2.2E1,1.6E1,2E1,1E0,8E0,1.3E1,7.5E1,1.1E1,9.2E1,2E1,1.9E1,3.6E1,6E0,1.5E1,8E0],"tree_param":{"num_deleted":"0","num_feature":"14","num_nodes":"31","size_leaf_vector":"1"}},{"base_weights":[-7.657944E-2,-4.4835615E0,3.2530472E0,-7.7410374E0,-1.9704883E0,1.4405439E0,6.8829474E0,-9.432092E0,-5.846271E0,-2.7070794E0,4.4415393E-1,-8.833876E-1,2.2637076E0,5.45657E0,4.8730377E-2,-5.621106E-2,-4.0205702E-2,-3.0523337E-2,-3.9837677E-3,-1.1433616E-2,-3.6150564E-2,2.0390972E-2,-2.43282E-3,-6.174277E-3,1.9900776E-2,7.878146E-3,1.88589E-2,1.0016387E-2,2.9692607E-2],"categories":[],"categories_nodes":[],"categories_segments":[],"categories_sizes":[],"default_left":[0,0,0,0,0,0,0,0,0,0,0,0,0,0,0,0,0,0,0,0,0,0,0,0,0,0,0,0,0],"id":47,"left_children":[1,3,5,7,9,11,13,15,17,19,21,23,25,27,-1,-1,-1,-1,-1,-1,-1,-1,-1,-1,-1,-1,-1,-1,-1],"loss_changes":[5.8987E3,1.4009719E3,1.4967231E3,1.8516895E2,1.7728415E2,2.9659802E2,2.5719653E2,5.275879E0,4.471765E1,1.27964355E2,8.315871E1,7.499943E1,1.1235162E2,7.63125E1,0E0,0E0,0E0,0E0,0E0,0E0,0E0,0E0,0E0,0E0,0E0,0E0,0E0,0E0,0E0],"parents":[2147483647,0,0,1,1,2,2,3,3,4,4,5,5,6,6,7,7,8,8,9,9,10,10,11,11,12,12,13,13],"right_children":[2,4,6,8,10,12,14,16,18,20,22,24,26,28,-1,-1,-1,-1,-1,-1,-1,-1,-1,-1,-1,-1,-1,-1,-1],"split_conditions":[1.8903177E1,1.5421883E1,2.458337E1,1.1932985E1,3.81E1,2.1500513E1,3.002412E1,5.28E1,8.403E1,8.051E1,9.75E1,5.53E1,2.5095495E1,2.3178009E1,4.8730377E-2,-5.621106E-2,-4.0205702E-2,-3.0523337E-2,-3.9837677E-3,-1.1433616E-2,-3.6150564E-2,2.0390972E-2,-2.43282E-3,-6.174277E-3,1.9900776E-2,7.878146E-3,1.88589E-2,1.0016387E-2,2.9692607E-2],"split_indices":[12,12,12,12,4,11,12,8,2,2,5,8,13,11,0,0,0,0,0,0,0,0,0,0,0,0,0,0,0],"split_type":[0,0,0,0,0,0,0,0,0,0,0,0,0,0,0,0,0,0,0,0,0,0,0,0,0,0,0,0,0],"sum_hessian":[4E2,1.72E2,2.28E2,7.4E1,9.8E1,1.53E2,7.5E1,3.7E1,3.7E1,7.5E1,2.3E1,4E1,1.13E2,5.2E1,2.3E1,1.3E1,2.4E1,3.5E1,2E0,7E1,5E0,4E0,1.9E1,3.8E1,2E0,7.9E1,3.4E1,7E0,4.5E1],"tree_param":{"num_deleted":"0","num_feature":"14","num_nodes":"29","size_leaf_vector":"1"}},{"base_weights":[-7.649103E-2,-4.6606545E0,3.2614372E0,-7.7948666E0,-2.2361922E0,1.2051535E0,7.1244893E0,-1.0184063E1,-5.7400093E0,-2.8892102E0,6.1968457E-2,-2.1771047E0,1.8034878E0,5.487672E0,1.0646875E1,-1.2941079E-2,-5.1728E-2,-1.8288733E-2,-3.237753E-2,-1.2362387E-2,-3.6000513E-2,1.643884E-2,-4.1876487E-3,-1.433789E-2,9.097693E-3,4.8902268E-3,1.4072557E-2,2.801411E-2,-2.1139574E-3,2.8155321E-2,5.684242E-2],"categories":[],"categories_nodes":[],"categories_segments":[],"categories_sizes":[],"default_left":[0,0,0,0,0,0,0,0,0,0,0,0,0,0,0,0,0,0,0,0,0,0,0,0,0,0,0,0,0,0,0],"id":48,"left_children":[1,3,5,7,9,11,13,15,17,19,21,23,25,27,29,-1,-1,-1,-1,-1,-1,-1,-1,-1,-1,-1,-1,-1,-1,-1,-1],"loss_changes":[6.028733E3,1.2439668E3,1.8025388E3,2.950244E2,1.4274942E2,3.074845E2,3.970481E2,1.2487549E1,3.910559E1,1.1513812E2,6.658883E1,6.868792E1,1.04068634E2,4.0482056E1,2.2850342E1,0E0,0E0,0E0,0E0,0E0,0E0,0E0,0E0,0E0,0E0,0E0,0E0,0E0,0E0,0E0,0E0],"parents":[2147483647,0,0,1,1,2,2,3,3,4,4,5,5,6,6,7,7,8,8,9,9,10,10,11,11,12,12,13,13,14,14],"right_children":[2,4,6,8,10,12,14,16,18,20,22,24,26,28,30,-1,-1,-1,-1,-1,-1,-1,-1,-1,-1,-1,-1,-1,-1,-1,-1],"split_conditions":[1.8903177E1,1.5421883E1,2.458337E1,1.1908093E1,3.81E1,2.0548613E1,3.073894E1,1.63322E0,9.22E1,3.91E1,1.73228E0,9.86E1,2.1937395E1,1.91E0,1.041E2,-1.2941079E-2,-5.1728E-2,-1.8288733E-2,-3.237753E-2,-1.2362387E-2,-3.6000513E-2,1.643884E-2,-4.1876487E-3,-1.433789E-2,9.097693E-3,4.8902268E-3,1.4072557E-2,2.801411E-2,-2.1139574E-3,2.8155321E-2,5.684242E-2],"split_indices":[12,12,12,12,4,11,12,3,5,9,3,7,12,3,7,0,0,0,0,0,0,0,0,0,0,0,0,0,0,0,0],"split_type":[0,0,0,0,0,0,0,0,0,0,0,0,0,0,0,0,0,0,0,0,0,0,0,0,0,0,0,0,0,0,0],"sum_hessian":[3.92E2,1.65E2,2.27E2,7.1E1,9.4E1,1.49E2,7.8E1,3.1E1,4E1,7.3E1,2.1E1,2.2E1,1.27E2,5.5E1,2.3E1,1E0,3E1,1.2E1,2.8E1,6.8E1,5E0,4E0,1.7E1,1.9E1,3E0,7.1E1,5.6E1,5.4E1,1E0,4E0,1.9E1],"tree_param":{"num_deleted":"0","num_feature":"14","num_nodes":"31","size_leaf_vector":"1"}},{"base_weights":[-1.10481836E-1,-4.350547E0,3.0936136E0,-7.4977427E0,-1.9618132E0,1.1900811E0,6.8098807E0,-9.425488E0,-5.7632713E0,-2.6316557E0,2.131869E-1,-2.4431174E0,1.8336239E0,5.4770913E0,1.080014E1,-5.9534293E-2,-3.821791E-2,-8.603568E-3,-2.9632306E-2,-1.0442529E-2,-3.804806E-2,2.0264277E-2,-3.7869483E-3,1.0114981E-2,-1.4823973E-2,6.2001315E-3,1.6580751E-2,1.1734871E-2,2.9610354E-2,5.797301E-2,2.5604393E-2],"categories":[],"categories_nodes":[],"categories_segments":[],"categories_sizes":[],"default_left":[0,0,0,0,0,0,0,0,0,0,0,0,0,0,0,0,0,0,0,0,0,0,0,0,0,0,0,0,0,0,0],"id":49,"left_children":[1,3,5,7,9,11,13,15,17,19,21,23,25,27,29,-1,-1,-1,-1,-1,-1,-1,-1,-1,-1,